digraph Tree {
node [shape=box, style="filled, rounded", color="black", fontname=helvetica] ;
edge [fontname=helvetica] ;
0 [label="Contract <= 0.5\ngini = 0.5\nsamples = 7761\nvalue = [3883, 3878]", fillcolor="#e5813900"] ;
1 [label="InternetService <= 1.5\ngini = 0.44\nsamples = 5134\nvalue = [1676, 3458]", fillcolor="#399de583"] ;
0 -> 1 [labeldistance=2.5, labelangle=45, headlabel="True"] ;
2 [label="tenure <= 5.5\ngini = 0.499\nsamples = 1961\nvalue = [930, 1031]", fillcolor="#399de519"] ;
1 -> 2 ;
3 [label="MonthlyCharges <= 20.875\ngini = 0.44\nsamples = 989\nvalue = [323, 666]", fillcolor="#399de583"] ;
2 -> 3 ;
4 [label="TotalCharges <= 36.325\ngini = 0.498\nsamples = 276\nvalue = [147, 129]", fillcolor="#e581391f"] ;
3 -> 4 ;
5 [label="MonthlyCharges <= 19.225\ngini = 0.489\nsamples = 185\nvalue = [79, 106]", fillcolor="#399de541"] ;
4 -> 5 ;
6 [label="PaperlessBilling <= 0.5\ngini = 0.124\nsamples = 15\nvalue = [14, 1]", fillcolor="#e58139ed"] ;
5 -> 6 ;
7 [label="gini = 0.0\nsamples = 13\nvalue = [13, 0]", fillcolor="#e58139ff"] ;
6 -> 7 ;
8 [label="TotalCharges <= 19.05\ngini = 0.5\nsamples = 2\nvalue = [1, 1]", fillcolor="#e5813900"] ;
6 -> 8 ;
9 [label="gini = 0.0\nsamples = 1\nvalue = [1, 0]", fillcolor="#e58139ff"] ;
8 -> 9 ;
10 [label="gini = 0.0\nsamples = 1\nvalue = [0, 1]", fillcolor="#399de5ff"] ;
8 -> 10 ;
11 [label="PaymentMethod <= 2.5\ngini = 0.472\nsamples = 170\nvalue = [65, 105]", fillcolor="#399de561"] ;
5 -> 11 ;
12 [label="SeniorCitizen <= 0.5\ngini = 0.457\nsamples = 161\nvalue = [57, 104]", fillcolor="#399de573"] ;
11 -> 12 ;
13 [label="MonthlyCharges <= 20.625\ngini = 0.47\nsamples = 151\nvalue = [57, 94]", fillcolor="#399de564"] ;
12 -> 13 ;
14 [label="TotalCharges <= 34.725\ngini = 0.461\nsamples = 147\nvalue = [53, 94]", fillcolor="#399de56f"] ;
13 -> 14 ;
15 [label="TotalCharges <= 20.225\ngini = 0.467\nsamples = 143\nvalue = [53, 90]", fillcolor="#399de569"] ;
14 -> 15 ;
16 [label="MonthlyCharges <= 20.075\ngini = 0.447\nsamples = 107\nvalue = [36, 71]", fillcolor="#399de57e"] ;
15 -> 16 ;
17 [label="TotalCharges <= 19.975\ngini = 0.476\nsamples = 82\nvalue = [32, 50]", fillcolor="#399de55c"] ;
16 -> 17 ;
18 [label="gender <= 0.5\ngini = 0.456\nsamples = 74\nvalue = [26, 48]", fillcolor="#399de575"] ;
17 -> 18 ;
19 [label="MonthlyCharges <= 19.875\ngini = 0.369\nsamples = 41\nvalue = [10, 31]", fillcolor="#399de5ad"] ;
18 -> 19 ;
20 [label="PaymentMethod <= 0.5\ngini = 0.422\nsamples = 33\nvalue = [10, 23]", fillcolor="#399de590"] ;
19 -> 20 ;
21 [label="gini = 0.0\nsamples = 2\nvalue = [2, 0]", fillcolor="#e58139ff"] ;
20 -> 21 ;
22 [label="PaymentMethod <= 1.5\ngini = 0.383\nsamples = 31\nvalue = [8, 23]", fillcolor="#399de5a6"] ;
20 -> 22 ;
23 [label="MonthlyCharges <= 19.825\ngini = 0.328\nsamples = 29\nvalue = [6, 23]", fillcolor="#399de5bc"] ;
22 -> 23 ;
24 [label="MonthlyCharges <= 19.475\ngini = 0.293\nsamples = 28\nvalue = [5, 23]", fillcolor="#399de5c8"] ;
23 -> 24 ;
25 [label="gini = 0.0\nsamples = 6\nvalue = [0, 6]", fillcolor="#399de5ff"] ;
24 -> 25 ;
26 [label="MonthlyCharges <= 19.575\ngini = 0.351\nsamples = 22\nvalue = [5, 17]", fillcolor="#399de5b4"] ;
24 -> 26 ;
27 [label="Dependents <= 0.5\ngini = 0.375\nsamples = 4\nvalue = [3, 1]", fillcolor="#e58139aa"] ;
26 -> 27 ;
28 [label="gini = 0.0\nsamples = 1\nvalue = [1, 0]", fillcolor="#e58139ff"] ;
27 -> 28 ;
29 [label="MonthlyCharges <= 19.525\ngini = 0.444\nsamples = 3\nvalue = [2, 1]", fillcolor="#e581397f"] ;
27 -> 29 ;
30 [label="gini = 0.0\nsamples = 1\nvalue = [1, 0]", fillcolor="#e58139ff"] ;
29 -> 30 ;
31 [label="gini = 0.5\nsamples = 2\nvalue = [1, 1]", fillcolor="#e5813900"] ;
29 -> 31 ;
32 [label="Dependents <= 0.5\ngini = 0.198\nsamples = 18\nvalue = [2, 16]", fillcolor="#399de5df"] ;
26 -> 32 ;
33 [label="gini = 0.0\nsamples = 2\nvalue = [0, 2]", fillcolor="#399de5ff"] ;
32 -> 33 ;
34 [label="TotalCharges <= 19.725\ngini = 0.219\nsamples = 16\nvalue = [2, 14]", fillcolor="#399de5db"] ;
32 -> 34 ;
35 [label="MonthlyCharges <= 19.675\ngini = 0.153\nsamples = 12\nvalue = [1, 11]", fillcolor="#399de5e8"] ;
34 -> 35 ;
36 [label="TotalCharges <= 19.625\ngini = 0.219\nsamples = 8\nvalue = [1, 7]", fillcolor="#399de5db"] ;
35 -> 36 ;
37 [label="gini = 0.0\nsamples = 1\nvalue = [0, 1]", fillcolor="#399de5ff"] ;
36 -> 37 ;
38 [label="gini = 0.245\nsamples = 7\nvalue = [1, 6]", fillcolor="#399de5d4"] ;
36 -> 38 ;
39 [label="gini = 0.0\nsamples = 4\nvalue = [0, 4]", fillcolor="#399de5ff"] ;
35 -> 39 ;
40 [label="TotalCharges <= 19.775\ngini = 0.375\nsamples = 4\nvalue = [1, 3]", fillcolor="#399de5aa"] ;
34 -> 40 ;
41 [label="gini = 0.5\nsamples = 2\nvalue = [1, 1]", fillcolor="#e5813900"] ;
40 -> 41 ;
42 [label="gini = 0.0\nsamples = 2\nvalue = [0, 2]", fillcolor="#399de5ff"] ;
40 -> 42 ;
43 [label="gini = 0.0\nsamples = 1\nvalue = [1, 0]", fillcolor="#e58139ff"] ;
23 -> 43 ;
44 [label="gini = 0.0\nsamples = 2\nvalue = [2, 0]", fillcolor="#e58139ff"] ;
22 -> 44 ;
45 [label="gini = 0.0\nsamples = 8\nvalue = [0, 8]", fillcolor="#399de5ff"] ;
19 -> 45 ;
46 [label="MonthlyCharges <= 19.625\ngini = 0.5\nsamples = 33\nvalue = [16, 17]", fillcolor="#399de50f"] ;
18 -> 46 ;
47 [label="TotalCharges <= 19.575\ngini = 0.476\nsamples = 23\nvalue = [9, 14]", fillcolor="#399de55b"] ;
46 -> 47 ;
48 [label="PaperlessBilling <= 0.5\ngini = 0.499\nsamples = 19\nvalue = [9, 10]", fillcolor="#399de519"] ;
47 -> 48 ;
49 [label="TotalCharges <= 19.525\ngini = 0.444\nsamples = 15\nvalue = [5, 10]", fillcolor="#399de57f"] ;
48 -> 49 ;
50 [label="TotalCharges <= 19.275\ngini = 0.355\nsamples = 13\nvalue = [3, 10]", fillcolor="#399de5b3"] ;
49 -> 50 ;
51 [label="gini = 0.0\nsamples = 1\nvalue = [1, 0]", fillcolor="#e58139ff"] ;
50 -> 51 ;
52 [label="PaymentMethod <= 0.5\ngini = 0.278\nsamples = 12\nvalue = [2, 10]", fillcolor="#399de5cc"] ;
50 -> 52 ;
53 [label="TotalCharges <= 19.375\ngini = 0.444\nsamples = 3\nvalue = [1, 2]", fillcolor="#399de57f"] ;
52 -> 53 ;
54 [label="gini = 0.0\nsamples = 2\nvalue = [0, 2]", fillcolor="#399de5ff"] ;
53 -> 54 ;
55 [label="gini = 0.0\nsamples = 1\nvalue = [1, 0]", fillcolor="#e58139ff"] ;
53 -> 55 ;
56 [label="MonthlyCharges <= 19.475\ngini = 0.198\nsamples = 9\nvalue = [1, 8]", fillcolor="#399de5df"] ;
52 -> 56 ;
57 [label="gini = 0.0\nsamples = 5\nvalue = [0, 5]", fillcolor="#399de5ff"] ;
56 -> 57 ;
58 [label="gini = 0.375\nsamples = 4\nvalue = [1, 3]", fillcolor="#399de5aa"] ;
56 -> 58 ;
59 [label="gini = 0.0\nsamples = 2\nvalue = [2, 0]", fillcolor="#e58139ff"] ;
49 -> 59 ;
60 [label="gini = 0.0\nsamples = 4\nvalue = [4, 0]", fillcolor="#e58139ff"] ;
48 -> 60 ;
61 [label="gini = 0.0\nsamples = 4\nvalue = [0, 4]", fillcolor="#399de5ff"] ;
47 -> 61 ;
62 [label="MonthlyCharges <= 19.875\ngini = 0.42\nsamples = 10\nvalue = [7, 3]", fillcolor="#e5813992"] ;
46 -> 62 ;
63 [label="TotalCharges <= 19.7\ngini = 0.278\nsamples = 6\nvalue = [5, 1]", fillcolor="#e58139cc"] ;
62 -> 63 ;
64 [label="gini = 0.444\nsamples = 3\nvalue = [2, 1]", fillcolor="#e581397f"] ;
63 -> 64 ;
65 [label="gini = 0.0\nsamples = 3\nvalue = [3, 0]", fillcolor="#e58139ff"] ;
63 -> 65 ;
66 [label="PaymentMethod <= 1.5\ngini = 0.5\nsamples = 4\nvalue = [2, 2]", fillcolor="#e5813900"] ;
62 -> 66 ;
67 [label="gini = 0.444\nsamples = 3\nvalue = [1, 2]", fillcolor="#399de57f"] ;
66 -> 67 ;
68 [label="gini = 0.0\nsamples = 1\nvalue = [1, 0]", fillcolor="#e58139ff"] ;
66 -> 68 ;
69 [label="PaymentMethod <= 1.5\ngini = 0.375\nsamples = 8\nvalue = [6, 2]", fillcolor="#e58139aa"] ;
17 -> 69 ;
70 [label="MonthlyCharges <= 20.025\ngini = 0.245\nsamples = 7\nvalue = [6, 1]", fillcolor="#e58139d4"] ;
69 -> 70 ;
71 [label="PaymentMethod <= 0.5\ngini = 0.444\nsamples = 3\nvalue = [2, 1]", fillcolor="#e581397f"] ;
70 -> 71 ;
72 [label="gini = 0.0\nsamples = 1\nvalue = [1, 0]", fillcolor="#e58139ff"] ;
71 -> 72 ;
73 [label="gini = 0.5\nsamples = 2\nvalue = [1, 1]", fillcolor="#e5813900"] ;
71 -> 73 ;
74 [label="gini = 0.0\nsamples = 4\nvalue = [4, 0]", fillcolor="#e58139ff"] ;
70 -> 74 ;
75 [label="gini = 0.0\nsamples = 1\nvalue = [0, 1]", fillcolor="#399de5ff"] ;
69 -> 75 ;
76 [label="Dependents <= 0.5\ngini = 0.269\nsamples = 25\nvalue = [4, 21]", fillcolor="#399de5ce"] ;
16 -> 76 ;
77 [label="gini = 0.0\nsamples = 1\nvalue = [1, 0]", fillcolor="#e58139ff"] ;
76 -> 77 ;
78 [label="MonthlyCharges <= 20.175\ngini = 0.219\nsamples = 24\nvalue = [3, 21]", fillcolor="#399de5db"] ;
76 -> 78 ;
79 [label="gini = 0.0\nsamples = 13\nvalue = [0, 13]", fillcolor="#399de5ff"] ;
78 -> 79 ;
80 [label="PaperlessBilling <= 0.5\ngini = 0.397\nsamples = 11\nvalue = [3, 8]", fillcolor="#399de59f"] ;
78 -> 80 ;
81 [label="PaymentMethod <= 1.5\ngini = 0.375\nsamples = 4\nvalue = [3, 1]", fillcolor="#e58139aa"] ;
80 -> 81 ;
82 [label="gini = 0.444\nsamples = 3\nvalue = [2, 1]", fillcolor="#e581397f"] ;
81 -> 82 ;
83 [label="gini = 0.0\nsamples = 1\nvalue = [1, 0]", fillcolor="#e58139ff"] ;
81 -> 83 ;
84 [label="gini = 0.0\nsamples = 7\nvalue = [0, 7]", fillcolor="#399de5ff"] ;
80 -> 84 ;
85 [label="gender <= 0.5\ngini = 0.498\nsamples = 36\nvalue = [17, 19]", fillcolor="#399de51b"] ;
15 -> 85 ;
86 [label="TotalCharges <= 20.475\ngini = 0.475\nsamples = 18\nvalue = [11, 7]", fillcolor="#e581395d"] ;
85 -> 86 ;
87 [label="MonthlyCharges <= 20.275\ngini = 0.198\nsamples = 9\nvalue = [8, 1]", fillcolor="#e58139df"] ;
86 -> 87 ;
88 [label="PaperlessBilling <= 0.5\ngini = 0.444\nsamples = 3\nvalue = [2, 1]", fillcolor="#e581397f"] ;
87 -> 88 ;
89 [label="gini = 0.0\nsamples = 1\nvalue = [0, 1]", fillcolor="#399de5ff"] ;
88 -> 89 ;
90 [label="gini = 0.0\nsamples = 2\nvalue = [2, 0]", fillcolor="#e58139ff"] ;
88 -> 90 ;
91 [label="gini = 0.0\nsamples = 6\nvalue = [6, 0]", fillcolor="#e58139ff"] ;
87 -> 91 ;
92 [label="MonthlyCharges <= 20.175\ngini = 0.444\nsamples = 9\nvalue = [3, 6]", fillcolor="#399de57f"] ;
86 -> 92 ;
93 [label="gini = 0.0\nsamples = 2\nvalue = [2, 0]", fillcolor="#e58139ff"] ;
92 -> 93 ;
94 [label="MonthlyCharges <= 20.575\ngini = 0.245\nsamples = 7\nvalue = [1, 6]", fillcolor="#399de5d4"] ;
92 -> 94 ;
95 [label="gini = 0.0\nsamples = 5\nvalue = [0, 5]", fillcolor="#399de5ff"] ;
94 -> 95 ;
96 [label="gini = 0.5\nsamples = 2\nvalue = [1, 1]", fillcolor="#e5813900"] ;
94 -> 96 ;
97 [label="MonthlyCharges <= 20.525\ngini = 0.444\nsamples = 18\nvalue = [6, 12]", fillcolor="#399de57f"] ;
85 -> 97 ;
98 [label="Partner <= 0.5\ngini = 0.415\nsamples = 17\nvalue = [5, 12]", fillcolor="#399de595"] ;
97 -> 98 ;
99 [label="gini = 0.0\nsamples = 1\nvalue = [1, 0]", fillcolor="#e58139ff"] ;
98 -> 99 ;
100 [label="MonthlyCharges <= 20.325\ngini = 0.375\nsamples = 16\nvalue = [4, 12]", fillcolor="#399de5aa"] ;
98 -> 100 ;
101 [label="TotalCharges <= 20.275\ngini = 0.219\nsamples = 8\nvalue = [1, 7]", fillcolor="#399de5db"] ;
100 -> 101 ;
102 [label="gini = 0.375\nsamples = 4\nvalue = [1, 3]", fillcolor="#399de5aa"] ;
101 -> 102 ;
103 [label="gini = 0.0\nsamples = 4\nvalue = [0, 4]", fillcolor="#399de5ff"] ;
101 -> 103 ;
104 [label="MonthlyCharges <= 20.375\ngini = 0.469\nsamples = 8\nvalue = [3, 5]", fillcolor="#399de566"] ;
100 -> 104 ;
105 [label="gini = 0.0\nsamples = 1\nvalue = [1, 0]", fillcolor="#e58139ff"] ;
104 -> 105 ;
106 [label="MonthlyCharges <= 20.45\ngini = 0.408\nsamples = 7\nvalue = [2, 5]", fillcolor="#399de599"] ;
104 -> 106 ;
107 [label="gini = 0.375\nsamples = 4\nvalue = [1, 3]", fillcolor="#399de5aa"] ;
106 -> 107 ;
108 [label="gini = 0.444\nsamples = 3\nvalue = [1, 2]", fillcolor="#399de57f"] ;
106 -> 108 ;
109 [label="gini = 0.0\nsamples = 1\nvalue = [1, 0]", fillcolor="#e58139ff"] ;
97 -> 109 ;
110 [label="gini = 0.0\nsamples = 4\nvalue = [0, 4]", fillcolor="#399de5ff"] ;
14 -> 110 ;
111 [label="gini = 0.0\nsamples = 4\nvalue = [4, 0]", fillcolor="#e58139ff"] ;
13 -> 111 ;
112 [label="gini = 0.0\nsamples = 10\nvalue = [0, 10]", fillcolor="#399de5ff"] ;
12 -> 112 ;
113 [label="PaperlessBilling <= 0.5\ngini = 0.198\nsamples = 9\nvalue = [8, 1]", fillcolor="#e58139df"] ;
11 -> 113 ;
114 [label="gini = 0.0\nsamples = 8\nvalue = [8, 0]", fillcolor="#e58139ff"] ;
113 -> 114 ;
115 [label="gini = 0.0\nsamples = 1\nvalue = [0, 1]", fillcolor="#399de5ff"] ;
113 -> 115 ;
116 [label="TotalCharges <= 107.55\ngini = 0.378\nsamples = 91\nvalue = [68, 23]", fillcolor="#e58139a9"] ;
4 -> 116 ;
117 [label="TotalCharges <= 77.55\ngini = 0.329\nsamples = 82\nvalue = [65, 17]", fillcolor="#e58139bc"] ;
116 -> 117 ;
118 [label="TotalCharges <= 75.9\ngini = 0.39\nsamples = 64\nvalue = [47, 17]", fillcolor="#e58139a3"] ;
117 -> 118 ;
119 [label="MonthlyCharges <= 20.475\ngini = 0.328\nsamples = 58\nvalue = [46, 12]", fillcolor="#e58139bc"] ;
118 -> 119 ;
120 [label="TotalCharges <= 58.075\ngini = 0.269\nsamples = 50\nvalue = [42, 8]", fillcolor="#e58139ce"] ;
119 -> 120 ;
121 [label="gini = 0.0\nsamples = 27\nvalue = [27, 0]", fillcolor="#e58139ff"] ;
120 -> 121 ;
122 [label="TotalCharges <= 60.2\ngini = 0.454\nsamples = 23\nvalue = [15, 8]", fillcolor="#e5813977"] ;
120 -> 122 ;
123 [label="MonthlyCharges <= 19.875\ngini = 0.219\nsamples = 8\nvalue = [1, 7]", fillcolor="#399de5db"] ;
122 -> 123 ;
124 [label="gini = 0.0\nsamples = 7\nvalue = [0, 7]", fillcolor="#399de5ff"] ;
123 -> 124 ;
125 [label="gini = 0.0\nsamples = 1\nvalue = [1, 0]", fillcolor="#e58139ff"] ;
123 -> 125 ;
126 [label="TotalCharges <= 64.075\ngini = 0.124\nsamples = 15\nvalue = [14, 1]", fillcolor="#e58139ed"] ;
122 -> 126 ;
127 [label="gini = 0.0\nsamples = 8\nvalue = [8, 0]", fillcolor="#e58139ff"] ;
126 -> 127 ;
128 [label="TotalCharges <= 65.25\ngini = 0.245\nsamples = 7\nvalue = [6, 1]", fillcolor="#e58139d4"] ;
126 -> 128 ;
129 [label="gini = 0.0\nsamples = 1\nvalue = [0, 1]", fillcolor="#399de5ff"] ;
128 -> 129 ;
130 [label="gini = 0.0\nsamples = 6\nvalue = [6, 0]", fillcolor="#e58139ff"] ;
128 -> 130 ;
131 [label="MonthlyCharges <= 20.675\ngini = 0.5\nsamples = 8\nvalue = [4, 4]", fillcolor="#e5813900"] ;
119 -> 131 ;
132 [label="gini = 0.0\nsamples = 4\nvalue = [0, 4]", fillcolor="#399de5ff"] ;
131 -> 132 ;
133 [label="gini = 0.0\nsamples = 4\nvalue = [4, 0]", fillcolor="#e58139ff"] ;
131 -> 133 ;
134 [label="PaperlessBilling <= 0.5\ngini = 0.278\nsamples = 6\nvalue = [1, 5]", fillcolor="#399de5cc"] ;
118 -> 134 ;
135 [label="gini = 0.0\nsamples = 5\nvalue = [0, 5]", fillcolor="#399de5ff"] ;
134 -> 135 ;
136 [label="gini = 0.0\nsamples = 1\nvalue = [1, 0]", fillcolor="#e58139ff"] ;
134 -> 136 ;
137 [label="gini = 0.0\nsamples = 18\nvalue = [18, 0]", fillcolor="#e58139ff"] ;
117 -> 137 ;
138 [label="MonthlyCharges <= 19.9\ngini = 0.444\nsamples = 9\nvalue = [3, 6]", fillcolor="#399de57f"] ;
116 -> 138 ;
139 [label="gini = 0.0\nsamples = 6\nvalue = [0, 6]", fillcolor="#399de5ff"] ;
138 -> 139 ;
140 [label="gini = 0.0\nsamples = 3\nvalue = [3, 0]", fillcolor="#e58139ff"] ;
138 -> 140 ;
141 [label="TotalCharges <= 201.625\ngini = 0.372\nsamples = 713\nvalue = [176, 537]", fillcolor="#399de5ab"] ;
3 -> 141 ;
142 [label="PaperlessBilling <= 0.5\ngini = 0.346\nsamples = 634\nvalue = [141, 493]", fillcolor="#399de5b6"] ;
141 -> 142 ;
143 [label="SeniorCitizen <= 0.5\ngini = 0.427\nsamples = 259\nvalue = [80, 179]", fillcolor="#399de58d"] ;
142 -> 143 ;
144 [label="OnlineSecurity <= 0.5\ngini = 0.46\nsamples = 209\nvalue = [75, 134]", fillcolor="#399de570"] ;
143 -> 144 ;
145 [label="MonthlyCharges <= 45.625\ngini = 0.441\nsamples = 183\nvalue = [60, 123]", fillcolor="#399de583"] ;
144 -> 145 ;
146 [label="TotalCharges <= 134.625\ngini = 0.489\nsamples = 101\nvalue = [43, 58]", fillcolor="#399de542"] ;
145 -> 146 ;
147 [label="MultipleLines <= 0.5\ngini = 0.478\nsamples = 96\nvalue = [38, 58]", fillcolor="#399de558"] ;
146 -> 147 ;
148 [label="PhoneService <= 0.5\ngini = 0.469\nsamples = 93\nvalue = [35, 58]", fillcolor="#399de565"] ;
147 -> 148 ;
149 [label="MonthlyCharges <= 44.425\ngini = 0.413\nsamples = 55\nvalue = [16, 39]", fillcolor="#399de596"] ;
148 -> 149 ;
150 [label="TotalCharges <= 44.275\ngini = 0.285\nsamples = 29\nvalue = [5, 24]", fillcolor="#399de5ca"] ;
149 -> 150 ;
151 [label="TotalCharges <= 20.925\ngini = 0.459\nsamples = 14\nvalue = [5, 9]", fillcolor="#399de571"] ;
150 -> 151 ;
152 [label="gini = 0.219\nsamples = 8\nvalue = [1, 7]", fillcolor="#399de5db"] ;
151 -> 152 ;
153 [label="MonthlyCharges <= 43.975\ngini = 0.444\nsamples = 6\nvalue = [4, 2]", fillcolor="#e581397f"] ;
151 -> 153 ;
154 [label="TotalCharges <= 43.875\ngini = 0.5\nsamples = 4\nvalue = [2, 2]", fillcolor="#e5813900"] ;
153 -> 154 ;
155 [label="gender <= 0.5\ngini = 0.444\nsamples = 3\nvalue = [2, 1]", fillcolor="#e581397f"] ;
154 -> 155 ;
156 [label="gini = 0.0\nsamples = 1\nvalue = [1, 0]", fillcolor="#e58139ff"] ;
155 -> 156 ;
157 [label="PaymentMethod <= 0.5\ngini = 0.5\nsamples = 2\nvalue = [1, 1]", fillcolor="#e5813900"] ;
155 -> 157 ;
158 [label="gini = 0.0\nsamples = 1\nvalue = [1, 0]", fillcolor="#e58139ff"] ;
157 -> 158 ;
159 [label="gini = 0.0\nsamples = 1\nvalue = [0, 1]", fillcolor="#399de5ff"] ;
157 -> 159 ;
160 [label="gini = 0.0\nsamples = 1\nvalue = [0, 1]", fillcolor="#399de5ff"] ;
154 -> 160 ;
161 [label="gini = 0.0\nsamples = 2\nvalue = [2, 0]", fillcolor="#e58139ff"] ;
153 -> 161 ;
162 [label="gini = 0.0\nsamples = 15\nvalue = [0, 15]", fillcolor="#399de5ff"] ;
150 -> 162 ;
163 [label="MonthlyCharges <= 44.625\ngini = 0.488\nsamples = 26\nvalue = [11, 15]", fillcolor="#399de544"] ;
149 -> 163 ;
164 [label="gini = 0.0\nsamples = 5\nvalue = [5, 0]", fillcolor="#e58139ff"] ;
163 -> 164 ;
165 [label="gender <= 0.5\ngini = 0.408\nsamples = 21\nvalue = [6, 15]", fillcolor="#399de599"] ;
163 -> 165 ;
166 [label="TotalCharges <= 100.275\ngini = 0.231\nsamples = 15\nvalue = [2, 13]", fillcolor="#399de5d8"] ;
165 -> 166 ;
167 [label="MonthlyCharges <= 45.475\ngini = 0.133\nsamples = 14\nvalue = [1, 13]", fillcolor="#399de5eb"] ;
166 -> 167 ;
168 [label="gini = 0.0\nsamples = 13\nvalue = [0, 13]", fillcolor="#399de5ff"] ;
167 -> 168 ;
169 [label="gini = 0.0\nsamples = 1\nvalue = [1, 0]", fillcolor="#e58139ff"] ;
167 -> 169 ;
170 [label="gini = 0.0\nsamples = 1\nvalue = [1, 0]", fillcolor="#e58139ff"] ;
166 -> 170 ;
171 [label="PaymentMethod <= 0.5\ngini = 0.444\nsamples = 6\nvalue = [4, 2]", fillcolor="#e581397f"] ;
165 -> 171 ;
172 [label="gini = 0.0\nsamples = 2\nvalue = [0, 2]", fillcolor="#399de5ff"] ;
171 -> 172 ;
173 [label="gini = 0.0\nsamples = 4\nvalue = [4, 0]", fillcolor="#e58139ff"] ;
171 -> 173 ;
174 [label="StreamingTV <= 0.5\ngini = 0.5\nsamples = 38\nvalue = [19, 19]", fillcolor="#e5813900"] ;
148 -> 174 ;
175 [label="TotalCharges <= 76.925\ngini = 0.489\nsamples = 33\nvalue = [19, 14]", fillcolor="#e5813943"] ;
174 -> 175 ;
176 [label="MonthlyCharges <= 24.55\ngini = 0.493\nsamples = 25\nvalue = [11, 14]", fillcolor="#399de537"] ;
175 -> 176 ;
177 [label="gini = 0.0\nsamples = 4\nvalue = [4, 0]", fillcolor="#e58139ff"] ;
176 -> 177 ;
178 [label="MonthlyCharges <= 30.375\ngini = 0.444\nsamples = 21\nvalue = [7, 14]", fillcolor="#399de57f"] ;
176 -> 178 ;
179 [label="TotalCharges <= 29.55\ngini = 0.32\nsamples = 15\nvalue = [3, 12]", fillcolor="#399de5bf"] ;
178 -> 179 ;
180 [label="MonthlyCharges <= 25.225\ngini = 0.469\nsamples = 8\nvalue = [3, 5]", fillcolor="#399de566"] ;
179 -> 180 ;
181 [label="gini = 0.0\nsamples = 5\nvalue = [0, 5]", fillcolor="#399de5ff"] ;
180 -> 181 ;
182 [label="gini = 0.0\nsamples = 3\nvalue = [3, 0]", fillcolor="#e58139ff"] ;
180 -> 182 ;
183 [label="gini = 0.0\nsamples = 7\nvalue = [0, 7]", fillcolor="#399de5ff"] ;
179 -> 183 ;
184 [label="TechSupport <= 0.5\ngini = 0.444\nsamples = 6\nvalue = [4, 2]", fillcolor="#e581397f"] ;
178 -> 184 ;
185 [label="TotalCharges <= 35.025\ngini = 0.444\nsamples = 3\nvalue = [1, 2]", fillcolor="#399de57f"] ;
184 -> 185 ;
186 [label="gini = 0.0\nsamples = 1\nvalue = [1, 0]", fillcolor="#e58139ff"] ;
185 -> 186 ;
187 [label="gini = 0.0\nsamples = 2\nvalue = [0, 2]", fillcolor="#399de5ff"] ;
185 -> 187 ;
188 [label="gini = 0.0\nsamples = 3\nvalue = [3, 0]", fillcolor="#e58139ff"] ;
184 -> 188 ;
189 [label="gini = 0.0\nsamples = 8\nvalue = [8, 0]", fillcolor="#e58139ff"] ;
175 -> 189 ;
190 [label="gini = 0.0\nsamples = 5\nvalue = [0, 5]", fillcolor="#399de5ff"] ;
174 -> 190 ;
191 [label="gini = 0.0\nsamples = 3\nvalue = [3, 0]", fillcolor="#e58139ff"] ;
147 -> 191 ;
192 [label="gini = 0.0\nsamples = 5\nvalue = [5, 0]", fillcolor="#e58139ff"] ;
146 -> 192 ;
193 [label="MonthlyCharges <= 48.975\ngini = 0.329\nsamples = 82\nvalue = [17, 65]", fillcolor="#399de5bc"] ;
145 -> 193 ;
194 [label="gini = 0.0\nsamples = 27\nvalue = [0, 27]", fillcolor="#399de5ff"] ;
193 -> 194 ;
195 [label="MonthlyCharges <= 49.775\ngini = 0.427\nsamples = 55\nvalue = [17, 38]", fillcolor="#399de58d"] ;
193 -> 195 ;
196 [label="gini = 0.0\nsamples = 4\nvalue = [4, 0]", fillcolor="#e58139ff"] ;
195 -> 196 ;
197 [label="tenure <= 3.5\ngini = 0.38\nsamples = 51\nvalue = [13, 38]", fillcolor="#399de5a8"] ;
195 -> 197 ;
198 [label="TotalCharges <= 188.9\ngini = 0.422\nsamples = 43\nvalue = [13, 30]", fillcolor="#399de591"] ;
197 -> 198 ;
199 [label="TotalCharges <= 154.3\ngini = 0.393\nsamples = 41\nvalue = [11, 30]", fillcolor="#399de5a1"] ;
198 -> 199 ;
200 [label="TotalCharges <= 79.425\ngini = 0.438\nsamples = 34\nvalue = [11, 23]", fillcolor="#399de585"] ;
199 -> 200 ;
201 [label="gender <= 0.5\ngini = 0.287\nsamples = 23\nvalue = [4, 19]", fillcolor="#399de5c9"] ;
200 -> 201 ;
202 [label="StreamingMovies <= 0.5\ngini = 0.375\nsamples = 16\nvalue = [4, 12]", fillcolor="#399de5aa"] ;
201 -> 202 ;
203 [label="MonthlyCharges <= 52.775\ngini = 0.32\nsamples = 15\nvalue = [3, 12]", fillcolor="#399de5bf"] ;
202 -> 203 ;
204 [label="MultipleLines <= 0.5\ngini = 0.198\nsamples = 9\nvalue = [1, 8]", fillcolor="#399de5df"] ;
203 -> 204 ;
205 [label="gini = 0.0\nsamples = 8\nvalue = [0, 8]", fillcolor="#399de5ff"] ;
204 -> 205 ;
206 [label="gini = 0.0\nsamples = 1\nvalue = [1, 0]", fillcolor="#e58139ff"] ;
204 -> 206 ;
207 [label="TotalCharges <= 57.575\ngini = 0.444\nsamples = 6\nvalue = [2, 4]", fillcolor="#399de57f"] ;
203 -> 207 ;
208 [label="TotalCharges <= 54.325\ngini = 0.444\nsamples = 3\nvalue = [2, 1]", fillcolor="#e581397f"] ;
207 -> 208 ;
209 [label="gini = 0.0\nsamples = 1\nvalue = [1, 0]", fillcolor="#e58139ff"] ;
208 -> 209 ;
210 [label="TechSupport <= 0.5\ngini = 0.5\nsamples = 2\nvalue = [1, 1]", fillcolor="#e5813900"] ;
208 -> 210 ;
211 [label="gini = 0.0\nsamples = 1\nvalue = [0, 1]", fillcolor="#399de5ff"] ;
210 -> 211 ;
212 [label="gini = 0.0\nsamples = 1\nvalue = [1, 0]", fillcolor="#e58139ff"] ;
210 -> 212 ;
213 [label="gini = 0.0\nsamples = 3\nvalue = [0, 3]", fillcolor="#399de5ff"] ;
207 -> 213 ;
214 [label="gini = 0.0\nsamples = 1\nvalue = [1, 0]", fillcolor="#e58139ff"] ;
202 -> 214 ;
215 [label="gini = 0.0\nsamples = 7\nvalue = [0, 7]", fillcolor="#399de5ff"] ;
201 -> 215 ;
216 [label="MonthlyCharges <= 61.45\ngini = 0.463\nsamples = 11\nvalue = [7, 4]", fillcolor="#e581396d"] ;
200 -> 216 ;
217 [label="gini = 0.0\nsamples = 5\nvalue = [5, 0]", fillcolor="#e58139ff"] ;
216 -> 217 ;
218 [label="MonthlyCharges <= 67.35\ngini = 0.444\nsamples = 6\nvalue = [2, 4]", fillcolor="#399de57f"] ;
216 -> 218 ;
219 [label="gini = 0.0\nsamples = 4\nvalue = [0, 4]", fillcolor="#399de5ff"] ;
218 -> 219 ;
220 [label="gini = 0.0\nsamples = 2\nvalue = [2, 0]", fillcolor="#e58139ff"] ;
218 -> 220 ;
221 [label="gini = 0.0\nsamples = 7\nvalue = [0, 7]", fillcolor="#399de5ff"] ;
199 -> 221 ;
222 [label="gini = 0.0\nsamples = 2\nvalue = [2, 0]", fillcolor="#e58139ff"] ;
198 -> 222 ;
223 [label="gini = 0.0\nsamples = 8\nvalue = [0, 8]", fillcolor="#399de5ff"] ;
197 -> 223 ;
224 [label="MonthlyCharges <= 34.675\ngini = 0.488\nsamples = 26\nvalue = [15, 11]", fillcolor="#e5813944"] ;
144 -> 224 ;
225 [label="TotalCharges <= 30.2\ngini = 0.18\nsamples = 10\nvalue = [1, 9]", fillcolor="#399de5e3"] ;
224 -> 225 ;
226 [label="TotalCharges <= 29.8\ngini = 0.375\nsamples = 4\nvalue = [1, 3]", fillcolor="#399de5aa"] ;
225 -> 226 ;
227 [label="gini = 0.0\nsamples = 3\nvalue = [0, 3]", fillcolor="#399de5ff"] ;
226 -> 227 ;
228 [label="gini = 0.0\nsamples = 1\nvalue = [1, 0]", fillcolor="#e58139ff"] ;
226 -> 228 ;
229 [label="gini = 0.0\nsamples = 6\nvalue = [0, 6]", fillcolor="#399de5ff"] ;
225 -> 229 ;
230 [label="TotalCharges <= 161.375\ngini = 0.219\nsamples = 16\nvalue = [14, 2]", fillcolor="#e58139db"] ;
224 -> 230 ;
231 [label="Partner <= 0.5\ngini = 0.124\nsamples = 15\nvalue = [14, 1]", fillcolor="#e58139ed"] ;
230 -> 231 ;
232 [label="MultipleLines <= 0.5\ngini = 0.444\nsamples = 3\nvalue = [2, 1]", fillcolor="#e581397f"] ;
231 -> 232 ;
233 [label="gini = 0.0\nsamples = 2\nvalue = [2, 0]", fillcolor="#e58139ff"] ;
232 -> 233 ;
234 [label="gini = 0.0\nsamples = 1\nvalue = [0, 1]", fillcolor="#399de5ff"] ;
232 -> 234 ;
235 [label="gini = 0.0\nsamples = 12\nvalue = [12, 0]", fillcolor="#e58139ff"] ;
231 -> 235 ;
236 [label="gini = 0.0\nsamples = 1\nvalue = [0, 1]", fillcolor="#399de5ff"] ;
230 -> 236 ;
237 [label="MultipleLines <= 0.5\ngini = 0.18\nsamples = 50\nvalue = [5, 45]", fillcolor="#399de5e3"] ;
143 -> 237 ;
238 [label="DeviceProtection <= 0.5\ngini = 0.15\nsamples = 49\nvalue = [4, 45]", fillcolor="#399de5e8"] ;
237 -> 238 ;
239 [label="PaymentMethod <= 1.5\ngini = 0.12\nsamples = 47\nvalue = [3, 44]", fillcolor="#399de5ee"] ;
238 -> 239 ;
240 [label="MonthlyCharges <= 44.475\ngini = 0.087\nsamples = 44\nvalue = [2, 42]", fillcolor="#399de5f3"] ;
239 -> 240 ;
241 [label="PhoneService <= 0.5\ngini = 0.198\nsamples = 18\nvalue = [2, 16]", fillcolor="#399de5df"] ;
240 -> 241 ;
242 [label="gini = 0.0\nsamples = 2\nvalue = [2, 0]", fillcolor="#e58139ff"] ;
241 -> 242 ;
243 [label="gini = 0.0\nsamples = 16\nvalue = [0, 16]", fillcolor="#399de5ff"] ;
241 -> 243 ;
244 [label="gini = 0.0\nsamples = 26\nvalue = [0, 26]", fillcolor="#399de5ff"] ;
240 -> 244 ;
245 [label="gender <= 0.5\ngini = 0.444\nsamples = 3\nvalue = [1, 2]", fillcolor="#399de57f"] ;
239 -> 245 ;
246 [label="gini = 0.0\nsamples = 1\nvalue = [1, 0]", fillcolor="#e58139ff"] ;
245 -> 246 ;
247 [label="gini = 0.0\nsamples = 2\nvalue = [0, 2]", fillcolor="#399de5ff"] ;
245 -> 247 ;
248 [label="TotalCharges <= 100.825\ngini = 0.5\nsamples = 2\nvalue = [1, 1]", fillcolor="#e5813900"] ;
238 -> 248 ;
249 [label="gini = 0.0\nsamples = 1\nvalue = [0, 1]", fillcolor="#399de5ff"] ;
248 -> 249 ;
250 [label="gini = 0.0\nsamples = 1\nvalue = [1, 0]", fillcolor="#e58139ff"] ;
248 -> 250 ;
251 [label="gini = 0.0\nsamples = 1\nvalue = [1, 0]", fillcolor="#e58139ff"] ;
237 -> 251 ;
252 [label="PaymentMethod <= 1.5\ngini = 0.272\nsamples = 375\nvalue = [61, 314]", fillcolor="#399de5cd"] ;
142 -> 252 ;
253 [label="Partner <= 0.5\ngini = 0.242\nsamples = 327\nvalue = [46, 281]", fillcolor="#399de5d5"] ;
252 -> 253 ;
254 [label="TotalCharges <= 51.95\ngini = 0.384\nsamples = 54\nvalue = [14, 40]", fillcolor="#399de5a6"] ;
253 -> 254 ;
255 [label="gini = 0.0\nsamples = 23\nvalue = [0, 23]", fillcolor="#399de5ff"] ;
254 -> 255 ;
256 [label="MonthlyCharges <= 30.875\ngini = 0.495\nsamples = 31\nvalue = [14, 17]", fillcolor="#399de52d"] ;
254 -> 256 ;
257 [label="gini = 0.0\nsamples = 6\nvalue = [6, 0]", fillcolor="#e58139ff"] ;
256 -> 257 ;
258 [label="PhoneService <= 0.5\ngini = 0.435\nsamples = 25\nvalue = [8, 17]", fillcolor="#399de587"] ;
256 -> 258 ;
259 [label="TotalCharges <= 161.35\ngini = 0.397\nsamples = 11\nvalue = [8, 3]", fillcolor="#e581399f"] ;
258 -> 259 ;
260 [label="gini = 0.0\nsamples = 8\nvalue = [8, 0]", fillcolor="#e58139ff"] ;
259 -> 260 ;
261 [label="gini = 0.0\nsamples = 3\nvalue = [0, 3]", fillcolor="#399de5ff"] ;
259 -> 261 ;
262 [label="gini = 0.0\nsamples = 14\nvalue = [0, 14]", fillcolor="#399de5ff"] ;
258 -> 262 ;
263 [label="InternetService <= 0.5\ngini = 0.207\nsamples = 273\nvalue = [32, 241]", fillcolor="#399de5dd"] ;
253 -> 263 ;
264 [label="TotalCharges <= 24.525\ngini = 0.5\nsamples = 8\nvalue = [4, 4]", fillcolor="#e5813900"] ;
263 -> 264 ;
265 [label="gini = 0.0\nsamples = 4\nvalue = [0, 4]", fillcolor="#399de5ff"] ;
264 -> 265 ;
266 [label="gini = 0.0\nsamples = 4\nvalue = [4, 0]", fillcolor="#e58139ff"] ;
264 -> 266 ;
267 [label="MonthlyCharges <= 73.125\ngini = 0.189\nsamples = 265\nvalue = [28, 237]", fillcolor="#399de5e1"] ;
263 -> 267 ;
268 [label="PhoneService <= 0.5\ngini = 0.184\nsamples = 264\nvalue = [27, 237]", fillcolor="#399de5e2"] ;
267 -> 268 ;
269 [label="TotalCharges <= 45.0\ngini = 0.225\nsamples = 186\nvalue = [24, 162]", fillcolor="#399de5d9"] ;
268 -> 269 ;
270 [label="MonthlyCharges <= 44.6\ngini = 0.42\nsamples = 20\nvalue = [6, 14]", fillcolor="#399de592"] ;
269 -> 270 ;
271 [label="PaymentMethod <= 0.5\ngini = 0.219\nsamples = 16\nvalue = [2, 14]", fillcolor="#399de5db"] ;
270 -> 271 ;
272 [label="gini = 0.0\nsamples = 7\nvalue = [0, 7]", fillcolor="#399de5ff"] ;
271 -> 272 ;
273 [label="TotalCharges <= 44.075\ngini = 0.346\nsamples = 9\nvalue = [2, 7]", fillcolor="#399de5b6"] ;
271 -> 273 ;
274 [label="gini = 0.0\nsamples = 1\nvalue = [1, 0]", fillcolor="#e58139ff"] ;
273 -> 274 ;
275 [label="TotalCharges <= 44.225\ngini = 0.219\nsamples = 8\nvalue = [1, 7]", fillcolor="#399de5db"] ;
273 -> 275 ;
276 [label="gini = 0.0\nsamples = 6\nvalue = [0, 6]", fillcolor="#399de5ff"] ;
275 -> 276 ;
277 [label="TotalCharges <= 44.375\ngini = 0.5\nsamples = 2\nvalue = [1, 1]", fillcolor="#e5813900"] ;
275 -> 277 ;
278 [label="gini = 0.0\nsamples = 1\nvalue = [1, 0]", fillcolor="#e58139ff"] ;
277 -> 278 ;
279 [label="gini = 0.0\nsamples = 1\nvalue = [0, 1]", fillcolor="#399de5ff"] ;
277 -> 279 ;
280 [label="gini = 0.0\nsamples = 4\nvalue = [4, 0]", fillcolor="#e58139ff"] ;
270 -> 280 ;
281 [label="MonthlyCharges <= 50.725\ngini = 0.193\nsamples = 166\nvalue = [18, 148]", fillcolor="#399de5e0"] ;
269 -> 281 ;
282 [label="MonthlyCharges <= 49.75\ngini = 0.245\nsamples = 105\nvalue = [15, 90]", fillcolor="#399de5d4"] ;
281 -> 282 ;
283 [label="TechSupport <= 0.5\ngini = 0.158\nsamples = 81\nvalue = [7, 74]", fillcolor="#399de5e7"] ;
282 -> 283 ;
284 [label="gender <= 0.5\ngini = 0.139\nsamples = 80\nvalue = [6, 74]", fillcolor="#399de5ea"] ;
283 -> 284 ;
285 [label="TotalCharges <= 45.825\ngini = 0.036\nsamples = 54\nvalue = [1, 53]", fillcolor="#399de5fa"] ;
284 -> 285 ;
286 [label="TotalCharges <= 45.75\ngini = 0.142\nsamples = 13\nvalue = [1, 12]", fillcolor="#399de5ea"] ;
285 -> 286 ;
287 [label="gini = 0.0\nsamples = 12\nvalue = [0, 12]", fillcolor="#399de5ff"] ;
286 -> 287 ;
288 [label="gini = 0.0\nsamples = 1\nvalue = [1, 0]", fillcolor="#e58139ff"] ;
286 -> 288 ;
289 [label="gini = 0.0\nsamples = 41\nvalue = [0, 41]", fillcolor="#399de5ff"] ;
285 -> 289 ;
290 [label="MonthlyCharges <= 45.275\ngini = 0.311\nsamples = 26\nvalue = [5, 21]", fillcolor="#399de5c2"] ;
284 -> 290 ;
291 [label="gini = 0.0\nsamples = 2\nvalue = [2, 0]", fillcolor="#e58139ff"] ;
290 -> 291 ;
292 [label="TotalCharges <= 106.075\ngini = 0.219\nsamples = 24\nvalue = [3, 21]", fillcolor="#399de5db"] ;
290 -> 292 ;
293 [label="TotalCharges <= 63.3\ngini = 0.375\nsamples = 12\nvalue = [3, 9]", fillcolor="#399de5aa"] ;
292 -> 293 ;
294 [label="MonthlyCharges <= 45.35\ngini = 0.18\nsamples = 10\nvalue = [1, 9]", fillcolor="#399de5e3"] ;
293 -> 294 ;
295 [label="gini = 0.0\nsamples = 6\nvalue = [0, 6]", fillcolor="#399de5ff"] ;
294 -> 295 ;
296 [label="MonthlyCharges <= 45.525\ngini = 0.375\nsamples = 4\nvalue = [1, 3]", fillcolor="#399de5aa"] ;
294 -> 296 ;
297 [label="gini = 0.5\nsamples = 2\nvalue = [1, 1]", fillcolor="#e5813900"] ;
296 -> 297 ;
298 [label="gini = 0.0\nsamples = 2\nvalue = [0, 2]", fillcolor="#399de5ff"] ;
296 -> 298 ;
299 [label="gini = 0.0\nsamples = 2\nvalue = [2, 0]", fillcolor="#e58139ff"] ;
293 -> 299 ;
300 [label="gini = 0.0\nsamples = 12\nvalue = [0, 12]", fillcolor="#399de5ff"] ;
292 -> 300 ;
301 [label="gini = 0.0\nsamples = 1\nvalue = [1, 0]", fillcolor="#e58139ff"] ;
283 -> 301 ;
302 [label="TotalCharges <= 50.6\ngini = 0.444\nsamples = 24\nvalue = [8, 16]", fillcolor="#399de57f"] ;
282 -> 302 ;
303 [label="PaymentMethod <= 0.5\ngini = 0.266\nsamples = 19\nvalue = [3, 16]", fillcolor="#399de5cf"] ;
302 -> 303 ;
304 [label="MonthlyCharges <= 50.25\ngini = 0.49\nsamples = 7\nvalue = [3, 4]", fillcolor="#399de540"] ;
303 -> 304 ;
305 [label="gini = 0.0\nsamples = 3\nvalue = [3, 0]", fillcolor="#e58139ff"] ;
304 -> 305 ;
306 [label="gini = 0.0\nsamples = 4\nvalue = [0, 4]", fillcolor="#399de5ff"] ;
304 -> 306 ;
307 [label="gini = 0.0\nsamples = 12\nvalue = [0, 12]", fillcolor="#399de5ff"] ;
303 -> 307 ;
308 [label="gini = 0.0\nsamples = 5\nvalue = [5, 0]", fillcolor="#e58139ff"] ;
302 -> 308 ;
309 [label="TotalCharges <= 114.125\ngini = 0.094\nsamples = 61\nvalue = [3, 58]", fillcolor="#399de5f2"] ;
281 -> 309 ;
310 [label="Dependents <= 0.5\ngini = 0.042\nsamples = 47\nvalue = [1, 46]", fillcolor="#399de5f9"] ;
309 -> 310 ;
311 [label="MonthlyCharges <= 59.775\ngini = 0.278\nsamples = 6\nvalue = [1, 5]", fillcolor="#399de5cc"] ;
310 -> 311 ;
312 [label="gini = 0.0\nsamples = 1\nvalue = [1, 0]", fillcolor="#e58139ff"] ;
311 -> 312 ;
313 [label="gini = 0.0\nsamples = 5\nvalue = [0, 5]", fillcolor="#399de5ff"] ;
311 -> 313 ;
314 [label="gini = 0.0\nsamples = 41\nvalue = [0, 41]", fillcolor="#399de5ff"] ;
310 -> 314 ;
315 [label="TotalCharges <= 131.975\ngini = 0.245\nsamples = 14\nvalue = [2, 12]", fillcolor="#399de5d4"] ;
309 -> 315 ;
316 [label="gini = 0.0\nsamples = 2\nvalue = [2, 0]", fillcolor="#e58139ff"] ;
315 -> 316 ;
317 [label="gini = 0.0\nsamples = 12\nvalue = [0, 12]", fillcolor="#399de5ff"] ;
315 -> 317 ;
318 [label="TotalCharges <= 25.0\ngini = 0.074\nsamples = 78\nvalue = [3, 75]", fillcolor="#399de5f5"] ;
268 -> 318 ;
319 [label="MonthlyCharges <= 24.675\ngini = 0.5\nsamples = 2\nvalue = [1, 1]", fillcolor="#e5813900"] ;
318 -> 319 ;
320 [label="gini = 0.0\nsamples = 1\nvalue = [0, 1]", fillcolor="#399de5ff"] ;
319 -> 320 ;
321 [label="gini = 0.0\nsamples = 1\nvalue = [1, 0]", fillcolor="#e58139ff"] ;
319 -> 321 ;
322 [label="TechSupport <= 0.5\ngini = 0.051\nsamples = 76\nvalue = [2, 74]", fillcolor="#399de5f8"] ;
318 -> 322 ;
323 [label="TotalCharges <= 25.175\ngini = 0.027\nsamples = 72\nvalue = [1, 71]", fillcolor="#399de5fb"] ;
322 -> 323 ;
324 [label="TotalCharges <= 25.125\ngini = 0.219\nsamples = 8\nvalue = [1, 7]", fillcolor="#399de5db"] ;
323 -> 324 ;
325 [label="gini = 0.0\nsamples = 6\nvalue = [0, 6]", fillcolor="#399de5ff"] ;
324 -> 325 ;
326 [label="gender <= 0.5\ngini = 0.5\nsamples = 2\nvalue = [1, 1]", fillcolor="#e5813900"] ;
324 -> 326 ;
327 [label="gini = 0.0\nsamples = 1\nvalue = [0, 1]", fillcolor="#399de5ff"] ;
326 -> 327 ;
328 [label="gini = 0.0\nsamples = 1\nvalue = [1, 0]", fillcolor="#e58139ff"] ;
326 -> 328 ;
329 [label="gini = 0.0\nsamples = 64\nvalue = [0, 64]", fillcolor="#399de5ff"] ;
323 -> 329 ;
330 [label="OnlineBackup <= 0.5\ngini = 0.375\nsamples = 4\nvalue = [1, 3]", fillcolor="#399de5aa"] ;
322 -> 330 ;
331 [label="gini = 0.0\nsamples = 1\nvalue = [1, 0]", fillcolor="#e58139ff"] ;
330 -> 331 ;
332 [label="gini = 0.0\nsamples = 3\nvalue = [0, 3]", fillcolor="#399de5ff"] ;
330 -> 332 ;
333 [label="gini = 0.0\nsamples = 1\nvalue = [1, 0]", fillcolor="#e58139ff"] ;
267 -> 333 ;
334 [label="MonthlyCharges <= 55.8\ngini = 0.43\nsamples = 48\nvalue = [15, 33]", fillcolor="#399de58b"] ;
252 -> 334 ;
335 [label="TotalCharges <= 44.725\ngini = 0.357\nsamples = 43\nvalue = [10, 33]", fillcolor="#399de5b2"] ;
334 -> 335 ;
336 [label="MonthlyCharges <= 39.55\ngini = 0.48\nsamples = 5\nvalue = [3, 2]", fillcolor="#e5813955"] ;
335 -> 336 ;
337 [label="gini = 0.0\nsamples = 2\nvalue = [0, 2]", fillcolor="#399de5ff"] ;
336 -> 337 ;
338 [label="gini = 0.0\nsamples = 3\nvalue = [3, 0]", fillcolor="#e58139ff"] ;
336 -> 338 ;
339 [label="MonthlyCharges <= 25.05\ngini = 0.301\nsamples = 38\nvalue = [7, 31]", fillcolor="#399de5c5"] ;
335 -> 339 ;
340 [label="gini = 0.0\nsamples = 1\nvalue = [1, 0]", fillcolor="#e58139ff"] ;
339 -> 340 ;
341 [label="TotalCharges <= 172.825\ngini = 0.272\nsamples = 37\nvalue = [6, 31]", fillcolor="#399de5ce"] ;
339 -> 341 ;
342 [label="OnlineSecurity <= 0.5\ngini = 0.239\nsamples = 36\nvalue = [5, 31]", fillcolor="#399de5d6"] ;
341 -> 342 ;
343 [label="MultipleLines <= 0.5\ngini = 0.175\nsamples = 31\nvalue = [3, 28]", fillcolor="#399de5e4"] ;
342 -> 343 ;
344 [label="MonthlyCharges <= 37.6\ngini = 0.137\nsamples = 27\nvalue = [2, 25]", fillcolor="#399de5eb"] ;
343 -> 344 ;
345 [label="PaymentMethod <= 2.5\ngini = 0.5\nsamples = 2\nvalue = [1, 1]", fillcolor="#e5813900"] ;
344 -> 345 ;
346 [label="gini = 0.0\nsamples = 1\nvalue = [0, 1]", fillcolor="#399de5ff"] ;
345 -> 346 ;
347 [label="gini = 0.0\nsamples = 1\nvalue = [1, 0]", fillcolor="#e58139ff"] ;
345 -> 347 ;
348 [label="PaymentMethod <= 2.5\ngini = 0.077\nsamples = 25\nvalue = [1, 24]", fillcolor="#399de5f4"] ;
344 -> 348 ;
349 [label="tenure <= 1.5\ngini = 0.245\nsamples = 7\nvalue = [1, 6]", fillcolor="#399de5d4"] ;
348 -> 349 ;
350 [label="gini = 0.0\nsamples = 6\nvalue = [0, 6]", fillcolor="#399de5ff"] ;
349 -> 350 ;
351 [label="gini = 0.0\nsamples = 1\nvalue = [1, 0]", fillcolor="#e58139ff"] ;
349 -> 351 ;
352 [label="gini = 0.0\nsamples = 18\nvalue = [0, 18]", fillcolor="#399de5ff"] ;
348 -> 352 ;
353 [label="PaymentMethod <= 2.5\ngini = 0.375\nsamples = 4\nvalue = [1, 3]", fillcolor="#399de5aa"] ;
343 -> 353 ;
354 [label="gini = 0.0\nsamples = 3\nvalue = [0, 3]", fillcolor="#399de5ff"] ;
353 -> 354 ;
355 [label="gini = 0.0\nsamples = 1\nvalue = [1, 0]", fillcolor="#e58139ff"] ;
353 -> 355 ;
356 [label="TotalCharges <= 48.525\ngini = 0.48\nsamples = 5\nvalue = [2, 3]", fillcolor="#399de555"] ;
342 -> 356 ;
357 [label="gini = 0.0\nsamples = 1\nvalue = [1, 0]", fillcolor="#e58139ff"] ;
356 -> 357 ;
358 [label="gender <= 0.5\ngini = 0.375\nsamples = 4\nvalue = [1, 3]", fillcolor="#399de5aa"] ;
356 -> 358 ;
359 [label="gini = 0.0\nsamples = 1\nvalue = [1, 0]", fillcolor="#e58139ff"] ;
358 -> 359 ;
360 [label="gini = 0.0\nsamples = 3\nvalue = [0, 3]", fillcolor="#399de5ff"] ;
358 -> 360 ;
361 [label="gini = 0.0\nsamples = 1\nvalue = [1, 0]", fillcolor="#e58139ff"] ;
341 -> 361 ;
362 [label="gini = 0.0\nsamples = 5\nvalue = [5, 0]", fillcolor="#e58139ff"] ;
334 -> 362 ;
363 [label="TotalCharges <= 215.825\ngini = 0.494\nsamples = 79\nvalue = [35, 44]", fillcolor="#399de534"] ;
141 -> 363 ;
364 [label="gini = 0.0\nsamples = 6\nvalue = [6, 0]", fillcolor="#e58139ff"] ;
363 -> 364 ;
365 [label="MonthlyCharges <= 54.45\ngini = 0.479\nsamples = 73\nvalue = [29, 44]", fillcolor="#399de557"] ;
363 -> 365 ;
366 [label="MultipleLines <= 0.5\ngini = 0.361\nsamples = 38\nvalue = [9, 29]", fillcolor="#399de5b0"] ;
365 -> 366 ;
367 [label="Partner <= 0.5\ngini = 0.436\nsamples = 28\nvalue = [9, 19]", fillcolor="#399de586"] ;
366 -> 367 ;
368 [label="gini = 0.0\nsamples = 3\nvalue = [3, 0]", fillcolor="#e58139ff"] ;
367 -> 368 ;
369 [label="OnlineSecurity <= 0.5\ngini = 0.365\nsamples = 25\nvalue = [6, 19]", fillcolor="#399de5ae"] ;
367 -> 369 ;
370 [label="PaymentMethod <= 1.5\ngini = 0.497\nsamples = 13\nvalue = [6, 7]", fillcolor="#399de524"] ;
369 -> 370 ;
371 [label="TotalCharges <= 249.775\ngini = 0.42\nsamples = 10\nvalue = [3, 7]", fillcolor="#399de592"] ;
370 -> 371 ;
372 [label="tenure <= 4.5\ngini = 0.245\nsamples = 7\nvalue = [1, 6]", fillcolor="#399de5d4"] ;
371 -> 372 ;
373 [label="gini = 0.0\nsamples = 1\nvalue = [1, 0]", fillcolor="#e58139ff"] ;
372 -> 373 ;
374 [label="gini = 0.0\nsamples = 6\nvalue = [0, 6]", fillcolor="#399de5ff"] ;
372 -> 374 ;
375 [label="PhoneService <= 0.5\ngini = 0.444\nsamples = 3\nvalue = [2, 1]", fillcolor="#e581397f"] ;
371 -> 375 ;
376 [label="gini = 0.0\nsamples = 2\nvalue = [2, 0]", fillcolor="#e58139ff"] ;
375 -> 376 ;
377 [label="gini = 0.0\nsamples = 1\nvalue = [0, 1]", fillcolor="#399de5ff"] ;
375 -> 377 ;
378 [label="gini = 0.0\nsamples = 3\nvalue = [3, 0]", fillcolor="#e58139ff"] ;
370 -> 378 ;
379 [label="gini = 0.0\nsamples = 12\nvalue = [0, 12]", fillcolor="#399de5ff"] ;
369 -> 379 ;
380 [label="gini = 0.0\nsamples = 10\nvalue = [0, 10]", fillcolor="#399de5ff"] ;
366 -> 380 ;
381 [label="MonthlyCharges <= 66.775\ngini = 0.49\nsamples = 35\nvalue = [20, 15]", fillcolor="#e5813940"] ;
365 -> 381 ;
382 [label="TechSupport <= 0.5\ngini = 0.351\nsamples = 22\nvalue = [17, 5]", fillcolor="#e58139b4"] ;
381 -> 382 ;
383 [label="gini = 0.0\nsamples = 9\nvalue = [9, 0]", fillcolor="#e58139ff"] ;
382 -> 383 ;
384 [label="OnlineBackup <= 0.5\ngini = 0.473\nsamples = 13\nvalue = [8, 5]", fillcolor="#e5813960"] ;
382 -> 384 ;
385 [label="TotalCharges <= 233.375\ngini = 0.219\nsamples = 8\nvalue = [7, 1]", fillcolor="#e58139db"] ;
384 -> 385 ;
386 [label="gini = 0.0\nsamples = 1\nvalue = [0, 1]", fillcolor="#399de5ff"] ;
385 -> 386 ;
387 [label="gini = 0.0\nsamples = 7\nvalue = [7, 0]", fillcolor="#e58139ff"] ;
385 -> 387 ;
388 [label="TotalCharges <= 229.975\ngini = 0.32\nsamples = 5\nvalue = [1, 4]", fillcolor="#399de5bf"] ;
384 -> 388 ;
389 [label="gini = 0.0\nsamples = 1\nvalue = [1, 0]", fillcolor="#e58139ff"] ;
388 -> 389 ;
390 [label="gini = 0.0\nsamples = 4\nvalue = [0, 4]", fillcolor="#399de5ff"] ;
388 -> 390 ;
391 [label="tenure <= 3.5\ngini = 0.355\nsamples = 13\nvalue = [3, 10]", fillcolor="#399de5b3"] ;
381 -> 391 ;
392 [label="gini = 0.0\nsamples = 2\nvalue = [2, 0]", fillcolor="#e58139ff"] ;
391 -> 392 ;
393 [label="MonthlyCharges <= 74.775\ngini = 0.165\nsamples = 11\nvalue = [1, 10]", fillcolor="#399de5e6"] ;
391 -> 393 ;
394 [label="gini = 0.0\nsamples = 10\nvalue = [0, 10]", fillcolor="#399de5ff"] ;
393 -> 394 ;
395 [label="gini = 0.0\nsamples = 1\nvalue = [1, 0]", fillcolor="#e58139ff"] ;
393 -> 395 ;
396 [label="PhoneService <= 0.5\ngini = 0.469\nsamples = 972\nvalue = [607, 365]", fillcolor="#e5813966"] ;
2 -> 396 ;
397 [label="tenure <= 22.5\ngini = 0.428\nsamples = 719\nvalue = [496, 223]", fillcolor="#e581398c"] ;
396 -> 397 ;
398 [label="PaymentMethod <= 0.5\ngini = 0.462\nsamples = 489\nvalue = [312, 177]", fillcolor="#e581396e"] ;
397 -> 398 ;
399 [label="MonthlyCharges <= 59.5\ngini = 0.5\nsamples = 149\nvalue = [76, 73]", fillcolor="#e581390a"] ;
398 -> 399 ;
400 [label="TotalCharges <= 973.0\ngini = 0.491\nsamples = 115\nvalue = [50, 65]", fillcolor="#399de53b"] ;
399 -> 400 ;
401 [label="OnlineBackup <= 0.5\ngini = 0.5\nsamples = 98\nvalue = [48, 50]", fillcolor="#399de50a"] ;
400 -> 401 ;
402 [label="TotalCharges <= 902.975\ngini = 0.489\nsamples = 87\nvalue = [37, 50]", fillcolor="#399de542"] ;
401 -> 402 ;
403 [label="MonthlyCharges <= 43.9\ngini = 0.476\nsamples = 82\nvalue = [32, 50]", fillcolor="#399de55c"] ;
402 -> 403 ;
404 [label="MonthlyCharges <= 20.025\ngini = 0.477\nsamples = 28\nvalue = [17, 11]", fillcolor="#e581395a"] ;
403 -> 404 ;
405 [label="MonthlyCharges <= 19.225\ngini = 0.391\nsamples = 15\nvalue = [4, 11]", fillcolor="#399de5a2"] ;
404 -> 405 ;
406 [label="gini = 0.0\nsamples = 2\nvalue = [2, 0]", fillcolor="#e58139ff"] ;
405 -> 406 ;
407 [label="TotalCharges <= 396.075\ngini = 0.26\nsamples = 13\nvalue = [2, 11]", fillcolor="#399de5d1"] ;
405 -> 407 ;
408 [label="gender <= 0.5\ngini = 0.153\nsamples = 12\nvalue = [1, 11]", fillcolor="#399de5e8"] ;
407 -> 408 ;
409 [label="gini = 0.0\nsamples = 8\nvalue = [0, 8]", fillcolor="#399de5ff"] ;
408 -> 409 ;
410 [label="TotalCharges <= 171.575\ngini = 0.375\nsamples = 4\nvalue = [1, 3]", fillcolor="#399de5aa"] ;
408 -> 410 ;
411 [label="gini = 0.0\nsamples = 3\nvalue = [0, 3]", fillcolor="#399de5ff"] ;
410 -> 411 ;
412 [label="gini = 0.0\nsamples = 1\nvalue = [1, 0]", fillcolor="#e58139ff"] ;
410 -> 412 ;
413 [label="gini = 0.0\nsamples = 1\nvalue = [1, 0]", fillcolor="#e58139ff"] ;
407 -> 413 ;
414 [label="gini = 0.0\nsamples = 13\nvalue = [13, 0]", fillcolor="#e58139ff"] ;
404 -> 414 ;
415 [label="MultipleLines <= 0.5\ngini = 0.401\nsamples = 54\nvalue = [15, 39]", fillcolor="#399de59d"] ;
403 -> 415 ;
416 [label="TotalCharges <= 686.9\ngini = 0.313\nsamples = 36\nvalue = [7, 29]", fillcolor="#399de5c1"] ;
415 -> 416 ;
417 [label="TotalCharges <= 527.425\ngini = 0.393\nsamples = 26\nvalue = [7, 19]", fillcolor="#399de5a1"] ;
416 -> 417 ;
418 [label="SeniorCitizen <= 0.5\ngini = 0.287\nsamples = 23\nvalue = [4, 19]", fillcolor="#399de5c9"] ;
417 -> 418 ;
419 [label="StreamingMovies <= 0.5\ngini = 0.236\nsamples = 22\nvalue = [3, 19]", fillcolor="#399de5d7"] ;
418 -> 419 ;
420 [label="MonthlyCharges <= 49.275\ngini = 0.172\nsamples = 21\nvalue = [2, 19]", fillcolor="#399de5e4"] ;
419 -> 420 ;
421 [label="gini = 0.0\nsamples = 11\nvalue = [0, 11]", fillcolor="#399de5ff"] ;
420 -> 421 ;
422 [label="MonthlyCharges <= 49.625\ngini = 0.32\nsamples = 10\nvalue = [2, 8]", fillcolor="#399de5bf"] ;
420 -> 422 ;
423 [label="gini = 0.0\nsamples = 1\nvalue = [1, 0]", fillcolor="#e58139ff"] ;
422 -> 423 ;
424 [label="TotalCharges <= 462.425\ngini = 0.198\nsamples = 9\nvalue = [1, 8]", fillcolor="#399de5df"] ;
422 -> 424 ;
425 [label="gini = 0.0\nsamples = 8\nvalue = [0, 8]", fillcolor="#399de5ff"] ;
424 -> 425 ;
426 [label="gini = 0.0\nsamples = 1\nvalue = [1, 0]", fillcolor="#e58139ff"] ;
424 -> 426 ;
427 [label="gini = 0.0\nsamples = 1\nvalue = [1, 0]", fillcolor="#e58139ff"] ;
419 -> 427 ;
428 [label="gini = 0.0\nsamples = 1\nvalue = [1, 0]", fillcolor="#e58139ff"] ;
418 -> 428 ;
429 [label="gini = 0.0\nsamples = 3\nvalue = [3, 0]", fillcolor="#e58139ff"] ;
417 -> 429 ;
430 [label="gini = 0.0\nsamples = 10\nvalue = [0, 10]", fillcolor="#399de5ff"] ;
416 -> 430 ;
431 [label="TotalCharges <= 465.325\ngini = 0.494\nsamples = 18\nvalue = [8, 10]", fillcolor="#399de533"] ;
415 -> 431 ;
432 [label="gini = 0.0\nsamples = 4\nvalue = [4, 0]", fillcolor="#e58139ff"] ;
431 -> 432 ;
433 [label="PaperlessBilling <= 0.5\ngini = 0.408\nsamples = 14\nvalue = [4, 10]", fillcolor="#399de599"] ;
431 -> 433 ;
434 [label="gini = 0.0\nsamples = 7\nvalue = [0, 7]", fillcolor="#399de5ff"] ;
433 -> 434 ;
435 [label="TotalCharges <= 695.35\ngini = 0.49\nsamples = 7\nvalue = [4, 3]", fillcolor="#e5813940"] ;
433 -> 435 ;
436 [label="MonthlyCharges <= 52.35\ngini = 0.375\nsamples = 4\nvalue = [1, 3]", fillcolor="#399de5aa"] ;
435 -> 436 ;
437 [label="gini = 0.0\nsamples = 3\nvalue = [0, 3]", fillcolor="#399de5ff"] ;
436 -> 437 ;
438 [label="gini = 0.0\nsamples = 1\nvalue = [1, 0]", fillcolor="#e58139ff"] ;
436 -> 438 ;
439 [label="gini = 0.0\nsamples = 3\nvalue = [3, 0]", fillcolor="#e58139ff"] ;
435 -> 439 ;
440 [label="gini = 0.0\nsamples = 5\nvalue = [5, 0]", fillcolor="#e58139ff"] ;
402 -> 440 ;
441 [label="gini = 0.0\nsamples = 11\nvalue = [11, 0]", fillcolor="#e58139ff"] ;
401 -> 441 ;
442 [label="MonthlyCharges <= 52.65\ngini = 0.208\nsamples = 17\nvalue = [2, 15]", fillcolor="#399de5dd"] ;
400 -> 442 ;
443 [label="gini = 0.0\nsamples = 2\nvalue = [2, 0]", fillcolor="#e58139ff"] ;
442 -> 443 ;
444 [label="gini = 0.0\nsamples = 15\nvalue = [0, 15]", fillcolor="#399de5ff"] ;
442 -> 444 ;
445 [label="MonthlyCharges <= 70.25\ngini = 0.36\nsamples = 34\nvalue = [26, 8]", fillcolor="#e58139b1"] ;
399 -> 445 ;
446 [label="Partner <= 0.5\ngini = 0.091\nsamples = 21\nvalue = [20, 1]", fillcolor="#e58139f2"] ;
445 -> 446 ;
447 [label="gender <= 0.5\ngini = 0.32\nsamples = 5\nvalue = [4, 1]", fillcolor="#e58139bf"] ;
446 -> 447 ;
448 [label="TechSupport <= 0.5\ngini = 0.5\nsamples = 2\nvalue = [1, 1]", fillcolor="#e5813900"] ;
447 -> 448 ;
449 [label="gini = 0.0\nsamples = 1\nvalue = [0, 1]", fillcolor="#399de5ff"] ;
448 -> 449 ;
450 [label="gini = 0.0\nsamples = 1\nvalue = [1, 0]", fillcolor="#e58139ff"] ;
448 -> 450 ;
451 [label="gini = 0.0\nsamples = 3\nvalue = [3, 0]", fillcolor="#e58139ff"] ;
447 -> 451 ;
452 [label="gini = 0.0\nsamples = 16\nvalue = [16, 0]", fillcolor="#e58139ff"] ;
446 -> 452 ;
453 [label="TotalCharges <= 813.7\ngini = 0.497\nsamples = 13\nvalue = [6, 7]", fillcolor="#399de524"] ;
445 -> 453 ;
454 [label="Dependents <= 0.5\ngini = 0.245\nsamples = 7\nvalue = [1, 6]", fillcolor="#399de5d4"] ;
453 -> 454 ;
455 [label="gini = 0.0\nsamples = 1\nvalue = [1, 0]", fillcolor="#e58139ff"] ;
454 -> 455 ;
456 [label="gini = 0.0\nsamples = 6\nvalue = [0, 6]", fillcolor="#399de5ff"] ;
454 -> 456 ;
457 [label="TotalCharges <= 1570.5\ngini = 0.278\nsamples = 6\nvalue = [5, 1]", fillcolor="#e58139cc"] ;
453 -> 457 ;
458 [label="gini = 0.0\nsamples = 5\nvalue = [5, 0]", fillcolor="#e58139ff"] ;
457 -> 458 ;
459 [label="gini = 0.0\nsamples = 1\nvalue = [0, 1]", fillcolor="#399de5ff"] ;
457 -> 459 ;
460 [label="gender <= 0.5\ngini = 0.425\nsamples = 340\nvalue = [236, 104]", fillcolor="#e581398f"] ;
398 -> 460 ;
461 [label="Dependents <= 0.5\ngini = 0.338\nsamples = 167\nvalue = [131, 36]", fillcolor="#e58139b9"] ;
460 -> 461 ;
462 [label="tenure <= 6.5\ngini = 0.083\nsamples = 46\nvalue = [44, 2]", fillcolor="#e58139f3"] ;
461 -> 462 ;
463 [label="MonthlyCharges <= 35.475\ngini = 0.408\nsamples = 7\nvalue = [5, 2]", fillcolor="#e5813999"] ;
462 -> 463 ;
464 [label="gini = 0.0\nsamples = 5\nvalue = [5, 0]", fillcolor="#e58139ff"] ;
463 -> 464 ;
465 [label="gini = 0.0\nsamples = 2\nvalue = [0, 2]", fillcolor="#399de5ff"] ;
463 -> 465 ;
466 [label="gini = 0.0\nsamples = 39\nvalue = [39, 0]", fillcolor="#e58139ff"] ;
462 -> 466 ;
467 [label="MonthlyCharges <= 60.15\ngini = 0.404\nsamples = 121\nvalue = [87, 34]", fillcolor="#e581399b"] ;
461 -> 467 ;
468 [label="MonthlyCharges <= 44.775\ngini = 0.451\nsamples = 99\nvalue = [65, 34]", fillcolor="#e581397a"] ;
467 -> 468 ;
469 [label="MultipleLines <= 0.5\ngini = 0.24\nsamples = 43\nvalue = [37, 6]", fillcolor="#e58139d6"] ;
468 -> 469 ;
470 [label="SeniorCitizen <= 0.5\ngini = 0.184\nsamples = 39\nvalue = [35, 4]", fillcolor="#e58139e2"] ;
469 -> 470 ;
471 [label="MonthlyCharges <= 19.1\ngini = 0.149\nsamples = 37\nvalue = [34, 3]", fillcolor="#e58139e9"] ;
470 -> 471 ;
472 [label="tenure <= 8.0\ngini = 0.444\nsamples = 3\nvalue = [2, 1]", fillcolor="#e581397f"] ;
471 -> 472 ;
473 [label="gini = 0.0\nsamples = 2\nvalue = [2, 0]", fillcolor="#e58139ff"] ;
472 -> 473 ;
474 [label="gini = 0.0\nsamples = 1\nvalue = [0, 1]", fillcolor="#399de5ff"] ;
472 -> 474 ;
475 [label="MonthlyCharges <= 20.2\ngini = 0.111\nsamples = 34\nvalue = [32, 2]", fillcolor="#e58139ef"] ;
471 -> 475 ;
476 [label="gini = 0.0\nsamples = 16\nvalue = [16, 0]", fillcolor="#e58139ff"] ;
475 -> 476 ;
477 [label="MonthlyCharges <= 20.3\ngini = 0.198\nsamples = 18\nvalue = [16, 2]", fillcolor="#e58139df"] ;
475 -> 477 ;
478 [label="PaymentMethod <= 1.5\ngini = 0.5\nsamples = 4\nvalue = [2, 2]", fillcolor="#e5813900"] ;
477 -> 478 ;
479 [label="tenure <= 8.5\ngini = 0.444\nsamples = 3\nvalue = [2, 1]", fillcolor="#e581397f"] ;
478 -> 479 ;
480 [label="gini = 0.0\nsamples = 1\nvalue = [1, 0]", fillcolor="#e58139ff"] ;
479 -> 480 ;
481 [label="TotalCharges <= 193.25\ngini = 0.5\nsamples = 2\nvalue = [1, 1]", fillcolor="#e5813900"] ;
479 -> 481 ;
482 [label="gini = 0.0\nsamples = 1\nvalue = [0, 1]", fillcolor="#399de5ff"] ;
481 -> 482 ;
483 [label="gini = 0.0\nsamples = 1\nvalue = [1, 0]", fillcolor="#e58139ff"] ;
481 -> 483 ;
484 [label="gini = 0.0\nsamples = 1\nvalue = [0, 1]", fillcolor="#399de5ff"] ;
478 -> 484 ;
485 [label="gini = 0.0\nsamples = 14\nvalue = [14, 0]", fillcolor="#e58139ff"] ;
477 -> 485 ;
486 [label="InternetService <= 0.5\ngini = 0.5\nsamples = 2\nvalue = [1, 1]", fillcolor="#e5813900"] ;
470 -> 486 ;
487 [label="gini = 0.0\nsamples = 1\nvalue = [0, 1]", fillcolor="#399de5ff"] ;
486 -> 487 ;
488 [label="gini = 0.0\nsamples = 1\nvalue = [1, 0]", fillcolor="#e58139ff"] ;
486 -> 488 ;
489 [label="MonthlyCharges <= 23.325\ngini = 0.5\nsamples = 4\nvalue = [2, 2]", fillcolor="#e5813900"] ;
469 -> 489 ;
490 [label="gini = 0.0\nsamples = 2\nvalue = [0, 2]", fillcolor="#399de5ff"] ;
489 -> 490 ;
491 [label="gini = 0.0\nsamples = 2\nvalue = [2, 0]", fillcolor="#e58139ff"] ;
489 -> 491 ;
492 [label="MonthlyCharges <= 45.175\ngini = 0.5\nsamples = 56\nvalue = [28, 28]", fillcolor="#e5813900"] ;
468 -> 492 ;
493 [label="TotalCharges <= 652.125\ngini = 0.142\nsamples = 13\nvalue = [1, 12]", fillcolor="#399de5ea"] ;
492 -> 493 ;
494 [label="gini = 0.0\nsamples = 12\nvalue = [0, 12]", fillcolor="#399de5ff"] ;
493 -> 494 ;
495 [label="gini = 0.0\nsamples = 1\nvalue = [1, 0]", fillcolor="#e58139ff"] ;
493 -> 495 ;
496 [label="MonthlyCharges <= 59.975\ngini = 0.467\nsamples = 43\nvalue = [27, 16]", fillcolor="#e5813968"] ;
492 -> 496 ;
497 [label="PaymentMethod <= 1.5\ngini = 0.439\nsamples = 40\nvalue = [27, 13]", fillcolor="#e5813984"] ;
496 -> 497 ;
498 [label="OnlineSecurity <= 0.5\ngini = 0.499\nsamples = 19\nvalue = [10, 9]", fillcolor="#e5813919"] ;
497 -> 498 ;
499 [label="TotalCharges <= 744.55\ngini = 0.397\nsamples = 11\nvalue = [8, 3]", fillcolor="#e581399f"] ;
498 -> 499 ;
500 [label="gini = 0.0\nsamples = 7\nvalue = [7, 0]", fillcolor="#e58139ff"] ;
499 -> 500 ;
501 [label="tenure <= 19.0\ngini = 0.375\nsamples = 4\nvalue = [1, 3]", fillcolor="#399de5aa"] ;
499 -> 501 ;
502 [label="gini = 0.0\nsamples = 3\nvalue = [0, 3]", fillcolor="#399de5ff"] ;
501 -> 502 ;
503 [label="gini = 0.0\nsamples = 1\nvalue = [1, 0]", fillcolor="#e58139ff"] ;
501 -> 503 ;
504 [label="MultipleLines <= 0.5\ngini = 0.375\nsamples = 8\nvalue = [2, 6]", fillcolor="#399de5aa"] ;
498 -> 504 ;
505 [label="tenure <= 8.5\ngini = 0.245\nsamples = 7\nvalue = [1, 6]", fillcolor="#399de5d4"] ;
504 -> 505 ;
506 [label="gini = 0.0\nsamples = 4\nvalue = [0, 4]", fillcolor="#399de5ff"] ;
505 -> 506 ;
507 [label="TechSupport <= 0.5\ngini = 0.444\nsamples = 3\nvalue = [1, 2]", fillcolor="#399de57f"] ;
505 -> 507 ;
508 [label="gini = 0.0\nsamples = 1\nvalue = [1, 0]", fillcolor="#e58139ff"] ;
507 -> 508 ;
509 [label="gini = 0.0\nsamples = 2\nvalue = [0, 2]", fillcolor="#399de5ff"] ;
507 -> 509 ;
510 [label="gini = 0.0\nsamples = 1\nvalue = [1, 0]", fillcolor="#e58139ff"] ;
504 -> 510 ;
511 [label="DeviceProtection <= 0.5\ngini = 0.308\nsamples = 21\nvalue = [17, 4]", fillcolor="#e58139c3"] ;
497 -> 511 ;
512 [label="MonthlyCharges <= 52.375\ngini = 0.208\nsamples = 17\nvalue = [15, 2]", fillcolor="#e58139dd"] ;
511 -> 512 ;
513 [label="MonthlyCharges <= 49.875\ngini = 0.408\nsamples = 7\nvalue = [5, 2]", fillcolor="#e5813999"] ;
512 -> 513 ;
514 [label="MonthlyCharges <= 45.6\ngini = 0.278\nsamples = 6\nvalue = [5, 1]", fillcolor="#e58139cc"] ;
513 -> 514 ;
515 [label="MonthlyCharges <= 45.3\ngini = 0.5\nsamples = 2\nvalue = [1, 1]", fillcolor="#e5813900"] ;
514 -> 515 ;
516 [label="gini = 0.0\nsamples = 1\nvalue = [1, 0]", fillcolor="#e58139ff"] ;
515 -> 516 ;
517 [label="gini = 0.0\nsamples = 1\nvalue = [0, 1]", fillcolor="#399de5ff"] ;
515 -> 517 ;
518 [label="gini = 0.0\nsamples = 4\nvalue = [4, 0]", fillcolor="#e58139ff"] ;
514 -> 518 ;
519 [label="gini = 0.0\nsamples = 1\nvalue = [0, 1]", fillcolor="#399de5ff"] ;
513 -> 519 ;
520 [label="gini = 0.0\nsamples = 10\nvalue = [10, 0]", fillcolor="#e58139ff"] ;
512 -> 520 ;
521 [label="tenure <= 18.5\ngini = 0.5\nsamples = 4\nvalue = [2, 2]", fillcolor="#e5813900"] ;
511 -> 521 ;
522 [label="gini = 0.0\nsamples = 2\nvalue = [2, 0]", fillcolor="#e58139ff"] ;
521 -> 522 ;
523 [label="gini = 0.0\nsamples = 2\nvalue = [0, 2]", fillcolor="#399de5ff"] ;
521 -> 523 ;
524 [label="gini = 0.0\nsamples = 3\nvalue = [0, 3]", fillcolor="#399de5ff"] ;
496 -> 524 ;
525 [label="gini = 0.0\nsamples = 22\nvalue = [22, 0]", fillcolor="#e58139ff"] ;
467 -> 525 ;
526 [label="MonthlyCharges <= 19.275\ngini = 0.477\nsamples = 173\nvalue = [105, 68]", fillcolor="#e581395a"] ;
460 -> 526 ;
527 [label="Dependents <= 0.5\ngini = 0.43\nsamples = 16\nvalue = [5, 11]", fillcolor="#399de58b"] ;
526 -> 527 ;
528 [label="MonthlyCharges <= 18.9\ngini = 0.153\nsamples = 12\nvalue = [1, 11]", fillcolor="#399de5e8"] ;
527 -> 528 ;
529 [label="gini = 0.0\nsamples = 1\nvalue = [1, 0]", fillcolor="#e58139ff"] ;
528 -> 529 ;
530 [label="gini = 0.0\nsamples = 11\nvalue = [0, 11]", fillcolor="#399de5ff"] ;
528 -> 530 ;
531 [label="gini = 0.0\nsamples = 4\nvalue = [4, 0]", fillcolor="#e58139ff"] ;
527 -> 531 ;
532 [label="PaymentMethod <= 1.5\ngini = 0.462\nsamples = 157\nvalue = [100, 57]", fillcolor="#e581396e"] ;
526 -> 532 ;
533 [label="MonthlyCharges <= 60.875\ngini = 0.372\nsamples = 81\nvalue = [61, 20]", fillcolor="#e58139ab"] ;
532 -> 533 ;
534 [label="MultipleLines <= 0.5\ngini = 0.239\nsamples = 65\nvalue = [56, 9]", fillcolor="#e58139d6"] ;
533 -> 534 ;
535 [label="MonthlyCharges <= 53.675\ngini = 0.137\nsamples = 54\nvalue = [50, 4]", fillcolor="#e58139eb"] ;
534 -> 535 ;
536 [label="TotalCharges <= 175.5\ngini = 0.08\nsamples = 48\nvalue = [46, 2]", fillcolor="#e58139f4"] ;
535 -> 536 ;
537 [label="TotalCharges <= 164.225\ngini = 0.26\nsamples = 13\nvalue = [11, 2]", fillcolor="#e58139d1"] ;
536 -> 537 ;
538 [label="gini = 0.0\nsamples = 11\nvalue = [11, 0]", fillcolor="#e58139ff"] ;
537 -> 538 ;
539 [label="gini = 0.0\nsamples = 2\nvalue = [0, 2]", fillcolor="#399de5ff"] ;
537 -> 539 ;
540 [label="gini = 0.0\nsamples = 35\nvalue = [35, 0]", fillcolor="#e58139ff"] ;
536 -> 540 ;
541 [label="TechSupport <= 0.5\ngini = 0.444\nsamples = 6\nvalue = [4, 2]", fillcolor="#e581397f"] ;
535 -> 541 ;
542 [label="gini = 0.0\nsamples = 4\nvalue = [4, 0]", fillcolor="#e58139ff"] ;
541 -> 542 ;
543 [label="gini = 0.0\nsamples = 2\nvalue = [0, 2]", fillcolor="#399de5ff"] ;
541 -> 543 ;
544 [label="MonthlyCharges <= 24.45\ngini = 0.496\nsamples = 11\nvalue = [6, 5]", fillcolor="#e581392a"] ;
534 -> 544 ;
545 [label="gini = 0.0\nsamples = 4\nvalue = [0, 4]", fillcolor="#399de5ff"] ;
544 -> 545 ;
546 [label="MonthlyCharges <= 55.9\ngini = 0.245\nsamples = 7\nvalue = [6, 1]", fillcolor="#e58139d4"] ;
544 -> 546 ;
547 [label="OnlineSecurity <= 0.5\ngini = 0.444\nsamples = 3\nvalue = [2, 1]", fillcolor="#e581397f"] ;
546 -> 547 ;
548 [label="gini = 0.0\nsamples = 2\nvalue = [2, 0]", fillcolor="#e58139ff"] ;
547 -> 548 ;
549 [label="gini = 0.0\nsamples = 1\nvalue = [0, 1]", fillcolor="#399de5ff"] ;
547 -> 549 ;
550 [label="gini = 0.0\nsamples = 4\nvalue = [4, 0]", fillcolor="#e58139ff"] ;
546 -> 550 ;
551 [label="Partner <= 0.5\ngini = 0.43\nsamples = 16\nvalue = [5, 11]", fillcolor="#399de58b"] ;
533 -> 551 ;
552 [label="StreamingMovies <= 0.5\ngini = 0.48\nsamples = 5\nvalue = [3, 2]", fillcolor="#e5813955"] ;
551 -> 552 ;
553 [label="SeniorCitizen <= 0.5\ngini = 0.444\nsamples = 3\nvalue = [1, 2]", fillcolor="#399de57f"] ;
552 -> 553 ;
554 [label="gini = 0.0\nsamples = 2\nvalue = [0, 2]", fillcolor="#399de5ff"] ;
553 -> 554 ;
555 [label="gini = 0.0\nsamples = 1\nvalue = [1, 0]", fillcolor="#e58139ff"] ;
553 -> 555 ;
556 [label="gini = 0.0\nsamples = 2\nvalue = [2, 0]", fillcolor="#e58139ff"] ;
552 -> 556 ;
557 [label="TotalCharges <= 562.3\ngini = 0.298\nsamples = 11\nvalue = [2, 9]", fillcolor="#399de5c6"] ;
551 -> 557 ;
558 [label="gini = 0.0\nsamples = 1\nvalue = [1, 0]", fillcolor="#e58139ff"] ;
557 -> 558 ;
559 [label="MonthlyCharges <= 67.625\ngini = 0.18\nsamples = 10\nvalue = [1, 9]", fillcolor="#399de5e3"] ;
557 -> 559 ;
560 [label="gini = 0.0\nsamples = 8\nvalue = [0, 8]", fillcolor="#399de5ff"] ;
559 -> 560 ;
561 [label="tenure <= 13.0\ngini = 0.5\nsamples = 2\nvalue = [1, 1]", fillcolor="#e5813900"] ;
559 -> 561 ;
562 [label="gini = 0.0\nsamples = 1\nvalue = [0, 1]", fillcolor="#399de5ff"] ;
561 -> 562 ;
563 [label="gini = 0.0\nsamples = 1\nvalue = [1, 0]", fillcolor="#e58139ff"] ;
561 -> 563 ;
564 [label="Partner <= 0.5\ngini = 0.5\nsamples = 76\nvalue = [39, 37]", fillcolor="#e581390d"] ;
532 -> 564 ;
565 [label="MonthlyCharges <= 54.7\ngini = 0.393\nsamples = 26\nvalue = [19, 7]", fillcolor="#e58139a1"] ;
564 -> 565 ;
566 [label="TotalCharges <= 172.0\ngini = 0.142\nsamples = 13\nvalue = [12, 1]", fillcolor="#e58139ea"] ;
565 -> 566 ;
567 [label="TotalCharges <= 148.0\ngini = 0.5\nsamples = 2\nvalue = [1, 1]", fillcolor="#e5813900"] ;
566 -> 567 ;
568 [label="gini = 0.0\nsamples = 1\nvalue = [1, 0]", fillcolor="#e58139ff"] ;
567 -> 568 ;
569 [label="gini = 0.0\nsamples = 1\nvalue = [0, 1]", fillcolor="#399de5ff"] ;
567 -> 569 ;
570 [label="gini = 0.0\nsamples = 11\nvalue = [11, 0]", fillcolor="#e58139ff"] ;
566 -> 570 ;
571 [label="TechSupport <= 0.5\ngini = 0.497\nsamples = 13\nvalue = [7, 6]", fillcolor="#e5813924"] ;
565 -> 571 ;
572 [label="OnlineSecurity <= 0.5\ngini = 0.32\nsamples = 5\nvalue = [1, 4]", fillcolor="#399de5bf"] ;
571 -> 572 ;
573 [label="gini = 0.0\nsamples = 1\nvalue = [1, 0]", fillcolor="#e58139ff"] ;
572 -> 573 ;
574 [label="gini = 0.0\nsamples = 4\nvalue = [0, 4]", fillcolor="#399de5ff"] ;
572 -> 574 ;
575 [label="MonthlyCharges <= 55.275\ngini = 0.375\nsamples = 8\nvalue = [6, 2]", fillcolor="#e58139aa"] ;
571 -> 575 ;
576 [label="gini = 0.0\nsamples = 2\nvalue = [0, 2]", fillcolor="#399de5ff"] ;
575 -> 576 ;
577 [label="gini = 0.0\nsamples = 6\nvalue = [6, 0]", fillcolor="#e58139ff"] ;
575 -> 577 ;
578 [label="MonthlyCharges <= 49.75\ngini = 0.48\nsamples = 50\nvalue = [20, 30]", fillcolor="#399de555"] ;
564 -> 578 ;
579 [label="MonthlyCharges <= 19.725\ngini = 0.383\nsamples = 31\nvalue = [8, 23]", fillcolor="#399de5a6"] ;
578 -> 579 ;
580 [label="MonthlyCharges <= 19.425\ngini = 0.375\nsamples = 4\nvalue = [3, 1]", fillcolor="#e58139aa"] ;
579 -> 580 ;
581 [label="gini = 0.0\nsamples = 1\nvalue = [0, 1]", fillcolor="#399de5ff"] ;
580 -> 581 ;
582 [label="gini = 0.0\nsamples = 3\nvalue = [3, 0]", fillcolor="#e58139ff"] ;
580 -> 582 ;
583 [label="MonthlyCharges <= 20.125\ngini = 0.302\nsamples = 27\nvalue = [5, 22]", fillcolor="#399de5c5"] ;
579 -> 583 ;
584 [label="gini = 0.0\nsamples = 11\nvalue = [0, 11]", fillcolor="#399de5ff"] ;
583 -> 584 ;
585 [label="MonthlyCharges <= 46.775\ngini = 0.43\nsamples = 16\nvalue = [5, 11]", fillcolor="#399de58b"] ;
583 -> 585 ;
586 [label="MonthlyCharges <= 25.05\ngini = 0.408\nsamples = 7\nvalue = [5, 2]", fillcolor="#e5813999"] ;
585 -> 586 ;
587 [label="gini = 0.0\nsamples = 3\nvalue = [3, 0]", fillcolor="#e58139ff"] ;
586 -> 587 ;
588 [label="TotalCharges <= 463.85\ngini = 0.5\nsamples = 4\nvalue = [2, 2]", fillcolor="#e5813900"] ;
586 -> 588 ;
589 [label="gini = 0.0\nsamples = 2\nvalue = [0, 2]", fillcolor="#399de5ff"] ;
588 -> 589 ;
590 [label="gini = 0.0\nsamples = 2\nvalue = [2, 0]", fillcolor="#e58139ff"] ;
588 -> 590 ;
591 [label="gini = 0.0\nsamples = 9\nvalue = [0, 9]", fillcolor="#399de5ff"] ;
585 -> 591 ;
592 [label="MultipleLines <= 0.5\ngini = 0.465\nsamples = 19\nvalue = [12, 7]", fillcolor="#e581396a"] ;
578 -> 592 ;
593 [label="TotalCharges <= 490.425\ngini = 0.298\nsamples = 11\nvalue = [9, 2]", fillcolor="#e58139c6"] ;
592 -> 593 ;
594 [label="DeviceProtection <= 0.5\ngini = 0.444\nsamples = 3\nvalue = [1, 2]", fillcolor="#399de57f"] ;
593 -> 594 ;
595 [label="gini = 0.0\nsamples = 2\nvalue = [0, 2]", fillcolor="#399de5ff"] ;
594 -> 595 ;
596 [label="gini = 0.0\nsamples = 1\nvalue = [1, 0]", fillcolor="#e58139ff"] ;
594 -> 596 ;
597 [label="gini = 0.0\nsamples = 8\nvalue = [8, 0]", fillcolor="#e58139ff"] ;
593 -> 597 ;
598 [label="TotalCharges <= 1055.2\ngini = 0.469\nsamples = 8\nvalue = [3, 5]", fillcolor="#399de566"] ;
592 -> 598 ;
599 [label="TotalCharges <= 665.125\ngini = 0.278\nsamples = 6\nvalue = [1, 5]", fillcolor="#399de5cc"] ;
598 -> 599 ;
600 [label="gini = 0.0\nsamples = 1\nvalue = [1, 0]", fillcolor="#e58139ff"] ;
599 -> 600 ;
601 [label="gini = 0.0\nsamples = 5\nvalue = [0, 5]", fillcolor="#399de5ff"] ;
599 -> 601 ;
602 [label="gini = 0.0\nsamples = 2\nvalue = [2, 0]", fillcolor="#e58139ff"] ;
598 -> 602 ;
603 [label="PaperlessBilling <= 0.5\ngini = 0.32\nsamples = 230\nvalue = [184, 46]", fillcolor="#e58139bf"] ;
397 -> 603 ;
604 [label="MonthlyCharges <= 72.05\ngini = 0.205\nsamples = 112\nvalue = [99, 13]", fillcolor="#e58139de"] ;
603 -> 604 ;
605 [label="MonthlyCharges <= 19.75\ngini = 0.133\nsamples = 98\nvalue = [91, 7]", fillcolor="#e58139eb"] ;
604 -> 605 ;
606 [label="MonthlyCharges <= 19.625\ngini = 0.444\nsamples = 9\nvalue = [6, 3]", fillcolor="#e581397f"] ;
605 -> 606 ;
607 [label="gini = 0.0\nsamples = 6\nvalue = [6, 0]", fillcolor="#e58139ff"] ;
606 -> 607 ;
608 [label="gini = 0.0\nsamples = 3\nvalue = [0, 3]", fillcolor="#399de5ff"] ;
606 -> 608 ;
609 [label="MonthlyCharges <= 65.175\ngini = 0.086\nsamples = 89\nvalue = [85, 4]", fillcolor="#e58139f3"] ;
605 -> 609 ;
610 [label="StreamingTV <= 0.5\ngini = 0.049\nsamples = 79\nvalue = [77, 2]", fillcolor="#e58139f8"] ;
609 -> 610 ;
611 [label="tenure <= 24.5\ngini = 0.026\nsamples = 75\nvalue = [74, 1]", fillcolor="#e58139fc"] ;
610 -> 611 ;
612 [label="Dependents <= 0.5\ngini = 0.198\nsamples = 9\nvalue = [8, 1]", fillcolor="#e58139df"] ;
611 -> 612 ;
613 [label="TechSupport <= 0.5\ngini = 0.444\nsamples = 3\nvalue = [2, 1]", fillcolor="#e581397f"] ;
612 -> 613 ;
614 [label="gini = 0.0\nsamples = 1\nvalue = [0, 1]", fillcolor="#399de5ff"] ;
613 -> 614 ;
615 [label="gini = 0.0\nsamples = 2\nvalue = [2, 0]", fillcolor="#e58139ff"] ;
613 -> 615 ;
616 [label="gini = 0.0\nsamples = 6\nvalue = [6, 0]", fillcolor="#e58139ff"] ;
612 -> 616 ;
617 [label="gini = 0.0\nsamples = 66\nvalue = [66, 0]", fillcolor="#e58139ff"] ;
611 -> 617 ;
618 [label="PaymentMethod <= 0.5\ngini = 0.375\nsamples = 4\nvalue = [3, 1]", fillcolor="#e58139aa"] ;
610 -> 618 ;
619 [label="gini = 0.0\nsamples = 1\nvalue = [0, 1]", fillcolor="#399de5ff"] ;
618 -> 619 ;
620 [label="gini = 0.0\nsamples = 3\nvalue = [3, 0]", fillcolor="#e58139ff"] ;
618 -> 620 ;
621 [label="MonthlyCharges <= 65.75\ngini = 0.32\nsamples = 10\nvalue = [8, 2]", fillcolor="#e58139bf"] ;
609 -> 621 ;
622 [label="gini = 0.0\nsamples = 2\nvalue = [0, 2]", fillcolor="#399de5ff"] ;
621 -> 622 ;
623 [label="gini = 0.0\nsamples = 8\nvalue = [8, 0]", fillcolor="#e58139ff"] ;
621 -> 623 ;
624 [label="MonthlyCharges <= 80.45\ngini = 0.49\nsamples = 14\nvalue = [8, 6]", fillcolor="#e5813940"] ;
604 -> 624 ;
625 [label="SeniorCitizen <= 0.5\ngini = 0.375\nsamples = 8\nvalue = [2, 6]", fillcolor="#399de5aa"] ;
624 -> 625 ;
626 [label="tenure <= 33.5\ngini = 0.245\nsamples = 7\nvalue = [1, 6]", fillcolor="#399de5d4"] ;
625 -> 626 ;
627 [label="gini = 0.0\nsamples = 1\nvalue = [1, 0]", fillcolor="#e58139ff"] ;
626 -> 627 ;
628 [label="gini = 0.0\nsamples = 6\nvalue = [0, 6]", fillcolor="#399de5ff"] ;
626 -> 628 ;
629 [label="gini = 0.0\nsamples = 1\nvalue = [1, 0]", fillcolor="#e58139ff"] ;
625 -> 629 ;
630 [label="gini = 0.0\nsamples = 6\nvalue = [6, 0]", fillcolor="#e58139ff"] ;
624 -> 630 ;
631 [label="MonthlyCharges <= 68.975\ngini = 0.403\nsamples = 118\nvalue = [85, 33]", fillcolor="#e581399c"] ;
603 -> 631 ;
632 [label="Dependents <= 0.5\ngini = 0.458\nsamples = 93\nvalue = [60, 33]", fillcolor="#e5813973"] ;
631 -> 632 ;
633 [label="MonthlyCharges <= 60.125\ngini = 0.495\nsamples = 31\nvalue = [14, 17]", fillcolor="#399de52d"] ;
632 -> 633 ;
634 [label="MonthlyCharges <= 54.95\ngini = 0.466\nsamples = 27\nvalue = [10, 17]", fillcolor="#399de569"] ;
633 -> 634 ;
635 [label="MonthlyCharges <= 19.975\ngini = 0.48\nsamples = 15\nvalue = [9, 6]", fillcolor="#e5813955"] ;
634 -> 635 ;
636 [label="PaymentMethod <= 1.5\ngini = 0.375\nsamples = 8\nvalue = [2, 6]", fillcolor="#399de5aa"] ;
635 -> 636 ;
637 [label="gini = 0.0\nsamples = 6\nvalue = [0, 6]", fillcolor="#399de5ff"] ;
636 -> 637 ;
638 [label="gini = 0.0\nsamples = 2\nvalue = [2, 0]", fillcolor="#e58139ff"] ;
636 -> 638 ;
639 [label="gini = 0.0\nsamples = 7\nvalue = [7, 0]", fillcolor="#e58139ff"] ;
635 -> 639 ;
640 [label="PaymentMethod <= 0.5\ngini = 0.153\nsamples = 12\nvalue = [1, 11]", fillcolor="#399de5e8"] ;
634 -> 640 ;
641 [label="Partner <= 0.5\ngini = 0.444\nsamples = 3\nvalue = [1, 2]", fillcolor="#399de57f"] ;
640 -> 641 ;
642 [label="gini = 0.0\nsamples = 2\nvalue = [0, 2]", fillcolor="#399de5ff"] ;
641 -> 642 ;
643 [label="gini = 0.0\nsamples = 1\nvalue = [1, 0]", fillcolor="#e58139ff"] ;
641 -> 643 ;
644 [label="gini = 0.0\nsamples = 9\nvalue = [0, 9]", fillcolor="#399de5ff"] ;
640 -> 644 ;
645 [label="gini = 0.0\nsamples = 4\nvalue = [4, 0]", fillcolor="#e58139ff"] ;
633 -> 645 ;
646 [label="MonthlyCharges <= 68.15\ngini = 0.383\nsamples = 62\nvalue = [46, 16]", fillcolor="#e58139a6"] ;
632 -> 646 ;
647 [label="MonthlyCharges <= 49.425\ngini = 0.358\nsamples = 60\nvalue = [46, 14]", fillcolor="#e58139b1"] ;
646 -> 647 ;
648 [label="gini = 0.0\nsamples = 10\nvalue = [10, 0]", fillcolor="#e58139ff"] ;
647 -> 648 ;
649 [label="TotalCharges <= 1717.3\ngini = 0.403\nsamples = 50\nvalue = [36, 14]", fillcolor="#e581399c"] ;
647 -> 649 ;
650 [label="tenure <= 29.0\ngini = 0.495\nsamples = 20\nvalue = [11, 9]", fillcolor="#e581392e"] ;
649 -> 650 ;
651 [label="MonthlyCharges <= 49.625\ngini = 0.355\nsamples = 13\nvalue = [10, 3]", fillcolor="#e58139b3"] ;
650 -> 651 ;
652 [label="gini = 0.0\nsamples = 2\nvalue = [0, 2]", fillcolor="#399de5ff"] ;
651 -> 652 ;
653 [label="MultipleLines <= 0.5\ngini = 0.165\nsamples = 11\nvalue = [10, 1]", fillcolor="#e58139e6"] ;
651 -> 653 ;
654 [label="gini = 0.0\nsamples = 9\nvalue = [9, 0]", fillcolor="#e58139ff"] ;
653 -> 654 ;
655 [label="OnlineSecurity <= 0.5\ngini = 0.5\nsamples = 2\nvalue = [1, 1]", fillcolor="#e5813900"] ;
653 -> 655 ;
656 [label="gini = 0.0\nsamples = 1\nvalue = [1, 0]", fillcolor="#e58139ff"] ;
655 -> 656 ;
657 [label="gini = 0.0\nsamples = 1\nvalue = [0, 1]", fillcolor="#399de5ff"] ;
655 -> 657 ;
658 [label="TotalCharges <= 1501.2\ngini = 0.245\nsamples = 7\nvalue = [1, 6]", fillcolor="#399de5d4"] ;
650 -> 658 ;
659 [label="gini = 0.0\nsamples = 1\nvalue = [1, 0]", fillcolor="#e58139ff"] ;
658 -> 659 ;
660 [label="gini = 0.0\nsamples = 6\nvalue = [0, 6]", fillcolor="#399de5ff"] ;
658 -> 660 ;
661 [label="TotalCharges <= 2171.375\ngini = 0.278\nsamples = 30\nvalue = [25, 5]", fillcolor="#e58139cc"] ;
649 -> 661 ;
662 [label="gini = 0.0\nsamples = 13\nvalue = [13, 0]", fillcolor="#e58139ff"] ;
661 -> 662 ;
663 [label="tenure <= 43.5\ngini = 0.415\nsamples = 17\nvalue = [12, 5]", fillcolor="#e5813995"] ;
661 -> 663 ;
664 [label="PaymentMethod <= 1.0\ngini = 0.444\nsamples = 6\nvalue = [2, 4]", fillcolor="#399de57f"] ;
663 -> 664 ;
665 [label="gini = 0.0\nsamples = 4\nvalue = [0, 4]", fillcolor="#399de5ff"] ;
664 -> 665 ;
666 [label="gini = 0.0\nsamples = 2\nvalue = [2, 0]", fillcolor="#e58139ff"] ;
664 -> 666 ;
667 [label="MultipleLines <= 0.5\ngini = 0.165\nsamples = 11\nvalue = [10, 1]", fillcolor="#e58139e6"] ;
663 -> 667 ;
668 [label="gini = 0.0\nsamples = 8\nvalue = [8, 0]", fillcolor="#e58139ff"] ;
667 -> 668 ;
669 [label="Partner <= 0.5\ngini = 0.444\nsamples = 3\nvalue = [2, 1]", fillcolor="#e581397f"] ;
667 -> 669 ;
670 [label="gini = 0.0\nsamples = 2\nvalue = [2, 0]", fillcolor="#e58139ff"] ;
669 -> 670 ;
671 [label="gini = 0.0\nsamples = 1\nvalue = [0, 1]", fillcolor="#399de5ff"] ;
669 -> 671 ;
672 [label="gini = 0.0\nsamples = 2\nvalue = [0, 2]", fillcolor="#399de5ff"] ;
646 -> 672 ;
673 [label="gini = 0.0\nsamples = 25\nvalue = [25, 0]", fillcolor="#e58139ff"] ;
631 -> 673 ;
674 [label="MonthlyCharges <= 29.875\ngini = 0.492\nsamples = 253\nvalue = [111, 142]", fillcolor="#399de538"] ;
396 -> 674 ;
675 [label="TechSupport <= 0.5\ngini = 0.429\nsamples = 45\nvalue = [31, 14]", fillcolor="#e581398c"] ;
674 -> 675 ;
676 [label="MonthlyCharges <= 24.525\ngini = 0.361\nsamples = 38\nvalue = [29, 9]", fillcolor="#e58139b0"] ;
675 -> 676 ;
677 [label="TotalCharges <= 647.65\ngini = 0.32\nsamples = 5\nvalue = [1, 4]", fillcolor="#399de5bf"] ;
676 -> 677 ;
678 [label="gini = 0.0\nsamples = 4\nvalue = [0, 4]", fillcolor="#399de5ff"] ;
677 -> 678 ;
679 [label="gini = 0.0\nsamples = 1\nvalue = [1, 0]", fillcolor="#e58139ff"] ;
677 -> 679 ;
680 [label="TotalCharges <= 315.075\ngini = 0.257\nsamples = 33\nvalue = [28, 5]", fillcolor="#e58139d1"] ;
676 -> 680 ;
681 [label="TotalCharges <= 208.575\ngini = 0.459\nsamples = 14\nvalue = [9, 5]", fillcolor="#e5813971"] ;
680 -> 681 ;
682 [label="gini = 0.0\nsamples = 7\nvalue = [7, 0]", fillcolor="#e58139ff"] ;
681 -> 682 ;
683 [label="OnlineSecurity <= 0.5\ngini = 0.408\nsamples = 7\nvalue = [2, 5]", fillcolor="#399de599"] ;
681 -> 683 ;
684 [label="gender <= 0.5\ngini = 0.278\nsamples = 6\nvalue = [1, 5]", fillcolor="#399de5cc"] ;
683 -> 684 ;
685 [label="gini = 0.0\nsamples = 4\nvalue = [0, 4]", fillcolor="#399de5ff"] ;
684 -> 685 ;
686 [label="tenure <= 10.0\ngini = 0.5\nsamples = 2\nvalue = [1, 1]", fillcolor="#e5813900"] ;
684 -> 686 ;
687 [label="gini = 0.0\nsamples = 1\nvalue = [1, 0]", fillcolor="#e58139ff"] ;
686 -> 687 ;
688 [label="gini = 0.0\nsamples = 1\nvalue = [0, 1]", fillcolor="#399de5ff"] ;
686 -> 688 ;
689 [label="gini = 0.0\nsamples = 1\nvalue = [1, 0]", fillcolor="#e58139ff"] ;
683 -> 689 ;
690 [label="gini = 0.0\nsamples = 19\nvalue = [19, 0]", fillcolor="#e58139ff"] ;
680 -> 690 ;
691 [label="Dependents <= 0.5\ngini = 0.408\nsamples = 7\nvalue = [2, 5]", fillcolor="#399de599"] ;
675 -> 691 ;
692 [label="gini = 0.0\nsamples = 2\nvalue = [2, 0]", fillcolor="#e58139ff"] ;
691 -> 692 ;
693 [label="gini = 0.0\nsamples = 5\nvalue = [0, 5]", fillcolor="#399de5ff"] ;
691 -> 693 ;
694 [label="tenure <= 18.5\ngini = 0.473\nsamples = 208\nvalue = [80, 128]", fillcolor="#399de560"] ;
674 -> 694 ;
695 [label="OnlineBackup <= 0.5\ngini = 0.393\nsamples = 93\nvalue = [25, 68]", fillcolor="#399de5a1"] ;
694 -> 695 ;
696 [label="Dependents <= 0.5\ngini = 0.287\nsamples = 69\nvalue = [12, 57]", fillcolor="#399de5c9"] ;
695 -> 696 ;
697 [label="TotalCharges <= 552.85\ngini = 0.494\nsamples = 9\nvalue = [5, 4]", fillcolor="#e5813933"] ;
696 -> 697 ;
698 [label="gini = 0.0\nsamples = 5\nvalue = [5, 0]", fillcolor="#e58139ff"] ;
697 -> 698 ;
699 [label="gini = 0.0\nsamples = 4\nvalue = [0, 4]", fillcolor="#399de5ff"] ;
697 -> 699 ;
700 [label="tenure <= 13.5\ngini = 0.206\nsamples = 60\nvalue = [7, 53]", fillcolor="#399de5dd"] ;
696 -> 700 ;
701 [label="tenure <= 7.0\ngini = 0.097\nsamples = 39\nvalue = [2, 37]", fillcolor="#399de5f1"] ;
700 -> 701 ;
702 [label="TotalCharges <= 301.9\ngini = 0.48\nsamples = 5\nvalue = [2, 3]", fillcolor="#399de555"] ;
701 -> 702 ;
703 [label="gini = 0.0\nsamples = 2\nvalue = [2, 0]", fillcolor="#e58139ff"] ;
702 -> 703 ;
704 [label="gini = 0.0\nsamples = 3\nvalue = [0, 3]", fillcolor="#399de5ff"] ;
702 -> 704 ;
705 [label="gini = 0.0\nsamples = 34\nvalue = [0, 34]", fillcolor="#399de5ff"] ;
701 -> 705 ;
706 [label="TotalCharges <= 666.05\ngini = 0.363\nsamples = 21\nvalue = [5, 16]", fillcolor="#399de5af"] ;
700 -> 706 ;
707 [label="gini = 0.0\nsamples = 3\nvalue = [3, 0]", fillcolor="#e58139ff"] ;
706 -> 707 ;
708 [label="MonthlyCharges <= 52.875\ngini = 0.198\nsamples = 18\nvalue = [2, 16]", fillcolor="#399de5df"] ;
706 -> 708 ;
709 [label="Partner <= 0.5\ngini = 0.111\nsamples = 17\nvalue = [1, 16]", fillcolor="#399de5ef"] ;
708 -> 709 ;
710 [label="gini = 0.0\nsamples = 14\nvalue = [0, 14]", fillcolor="#399de5ff"] ;
709 -> 710 ;
711 [label="MonthlyCharges <= 48.55\ngini = 0.444\nsamples = 3\nvalue = [1, 2]", fillcolor="#399de57f"] ;
709 -> 711 ;
712 [label="gini = 0.0\nsamples = 1\nvalue = [1, 0]", fillcolor="#e58139ff"] ;
711 -> 712 ;
713 [label="gini = 0.0\nsamples = 2\nvalue = [0, 2]", fillcolor="#399de5ff"] ;
711 -> 713 ;
714 [label="gini = 0.0\nsamples = 1\nvalue = [1, 0]", fillcolor="#e58139ff"] ;
708 -> 714 ;
715 [label="TechSupport <= 0.5\ngini = 0.497\nsamples = 24\nvalue = [13, 11]", fillcolor="#e5813927"] ;
695 -> 715 ;
716 [label="PaperlessBilling <= 0.5\ngini = 0.457\nsamples = 17\nvalue = [6, 11]", fillcolor="#399de574"] ;
715 -> 716 ;
717 [label="gini = 0.0\nsamples = 3\nvalue = [3, 0]", fillcolor="#e58139ff"] ;
716 -> 717 ;
718 [label="MonthlyCharges <= 41.725\ngini = 0.337\nsamples = 14\nvalue = [3, 11]", fillcolor="#399de5b9"] ;
716 -> 718 ;
719 [label="TotalCharges <= 383.475\ngini = 0.153\nsamples = 12\nvalue = [1, 11]", fillcolor="#399de5e8"] ;
718 -> 719 ;
720 [label="gini = 0.0\nsamples = 7\nvalue = [0, 7]", fillcolor="#399de5ff"] ;
719 -> 720 ;
721 [label="tenure <= 15.0\ngini = 0.32\nsamples = 5\nvalue = [1, 4]", fillcolor="#399de5bf"] ;
719 -> 721 ;
722 [label="gini = 0.0\nsamples = 1\nvalue = [1, 0]", fillcolor="#e58139ff"] ;
721 -> 722 ;
723 [label="gini = 0.0\nsamples = 4\nvalue = [0, 4]", fillcolor="#399de5ff"] ;
721 -> 723 ;
724 [label="gini = 0.0\nsamples = 2\nvalue = [2, 0]", fillcolor="#e58139ff"] ;
718 -> 724 ;
725 [label="gini = 0.0\nsamples = 7\nvalue = [7, 0]", fillcolor="#e58139ff"] ;
715 -> 725 ;
726 [label="TechSupport <= 0.5\ngini = 0.499\nsamples = 115\nvalue = [55, 60]", fillcolor="#399de515"] ;
694 -> 726 ;
727 [label="TotalCharges <= 2073.475\ngini = 0.481\nsamples = 92\nvalue = [37, 55]", fillcolor="#399de553"] ;
726 -> 727 ;
728 [label="TotalCharges <= 1657.625\ngini = 0.5\nsamples = 61\nvalue = [30, 31]", fillcolor="#399de508"] ;
727 -> 728 ;
729 [label="MonthlyCharges <= 32.175\ngini = 0.469\nsamples = 48\nvalue = [18, 30]", fillcolor="#399de566"] ;
728 -> 729 ;
730 [label="TotalCharges <= 1454.775\ngini = 0.153\nsamples = 12\nvalue = [1, 11]", fillcolor="#399de5e8"] ;
729 -> 730 ;
731 [label="gini = 0.0\nsamples = 11\nvalue = [0, 11]", fillcolor="#399de5ff"] ;
730 -> 731 ;
732 [label="gini = 0.0\nsamples = 1\nvalue = [1, 0]", fillcolor="#e58139ff"] ;
730 -> 732 ;
733 [label="MonthlyCharges <= 36.2\ngini = 0.498\nsamples = 36\nvalue = [17, 19]", fillcolor="#399de51b"] ;
729 -> 733 ;
734 [label="gini = 0.0\nsamples = 8\nvalue = [8, 0]", fillcolor="#e58139ff"] ;
733 -> 734 ;
735 [label="PaymentMethod <= 0.5\ngini = 0.436\nsamples = 28\nvalue = [9, 19]", fillcolor="#399de586"] ;
733 -> 735 ;
736 [label="StreamingMovies <= 0.5\ngini = 0.486\nsamples = 12\nvalue = [7, 5]", fillcolor="#e5813949"] ;
735 -> 736 ;
737 [label="MonthlyCharges <= 37.975\ngini = 0.278\nsamples = 6\nvalue = [1, 5]", fillcolor="#399de5cc"] ;
736 -> 737 ;
738 [label="gini = 0.0\nsamples = 1\nvalue = [1, 0]", fillcolor="#e58139ff"] ;
737 -> 738 ;
739 [label="gini = 0.0\nsamples = 5\nvalue = [0, 5]", fillcolor="#399de5ff"] ;
737 -> 739 ;
740 [label="gini = 0.0\nsamples = 6\nvalue = [6, 0]", fillcolor="#e58139ff"] ;
736 -> 740 ;
741 [label="TotalCharges <= 1564.35\ngini = 0.219\nsamples = 16\nvalue = [2, 14]", fillcolor="#399de5db"] ;
735 -> 741 ;
742 [label="Partner <= 0.5\ngini = 0.124\nsamples = 15\nvalue = [1, 14]", fillcolor="#399de5ed"] ;
741 -> 742 ;
743 [label="gini = 0.0\nsamples = 12\nvalue = [0, 12]", fillcolor="#399de5ff"] ;
742 -> 743 ;
744 [label="OnlineBackup <= 0.5\ngini = 0.444\nsamples = 3\nvalue = [1, 2]", fillcolor="#399de57f"] ;
742 -> 744 ;
745 [label="gini = 0.0\nsamples = 1\nvalue = [1, 0]", fillcolor="#e58139ff"] ;
744 -> 745 ;
746 [label="gini = 0.0\nsamples = 2\nvalue = [0, 2]", fillcolor="#399de5ff"] ;
744 -> 746 ;
747 [label="gini = 0.0\nsamples = 1\nvalue = [1, 0]", fillcolor="#e58139ff"] ;
741 -> 747 ;
748 [label="MonthlyCharges <= 50.7\ngini = 0.142\nsamples = 13\nvalue = [12, 1]", fillcolor="#e58139ea"] ;
728 -> 748 ;
749 [label="gini = 0.0\nsamples = 9\nvalue = [9, 0]", fillcolor="#e58139ff"] ;
748 -> 749 ;
750 [label="MonthlyCharges <= 50.8\ngini = 0.375\nsamples = 4\nvalue = [3, 1]", fillcolor="#e58139aa"] ;
748 -> 750 ;
751 [label="gini = 0.0\nsamples = 1\nvalue = [0, 1]", fillcolor="#399de5ff"] ;
750 -> 751 ;
752 [label="gini = 0.0\nsamples = 3\nvalue = [3, 0]", fillcolor="#e58139ff"] ;
750 -> 752 ;
753 [label="Dependents <= 0.5\ngini = 0.35\nsamples = 31\nvalue = [7, 24]", fillcolor="#399de5b5"] ;
727 -> 753 ;
754 [label="gini = 0.0\nsamples = 3\nvalue = [3, 0]", fillcolor="#e58139ff"] ;
753 -> 754 ;
755 [label="TotalCharges <= 3111.7\ngini = 0.245\nsamples = 28\nvalue = [4, 24]", fillcolor="#399de5d4"] ;
753 -> 755 ;
756 [label="PaymentMethod <= 2.5\ngini = 0.198\nsamples = 27\nvalue = [3, 24]", fillcolor="#399de5df"] ;
755 -> 756 ;
757 [label="MonthlyCharges <= 45.8\ngini = 0.142\nsamples = 26\nvalue = [2, 24]", fillcolor="#399de5ea"] ;
756 -> 757 ;
758 [label="gini = 0.0\nsamples = 14\nvalue = [0, 14]", fillcolor="#399de5ff"] ;
757 -> 758 ;
759 [label="StreamingTV <= 0.5\ngini = 0.278\nsamples = 12\nvalue = [2, 10]", fillcolor="#399de5cc"] ;
757 -> 759 ;
760 [label="gini = 0.0\nsamples = 1\nvalue = [1, 0]", fillcolor="#e58139ff"] ;
759 -> 760 ;
761 [label="Partner <= 0.5\ngini = 0.165\nsamples = 11\nvalue = [1, 10]", fillcolor="#399de5e6"] ;
759 -> 761 ;
762 [label="gini = 0.0\nsamples = 1\nvalue = [1, 0]", fillcolor="#e58139ff"] ;
761 -> 762 ;
763 [label="gini = 0.0\nsamples = 10\nvalue = [0, 10]", fillcolor="#399de5ff"] ;
761 -> 763 ;
764 [label="gini = 0.0\nsamples = 1\nvalue = [1, 0]", fillcolor="#e58139ff"] ;
756 -> 764 ;
765 [label="gini = 0.0\nsamples = 1\nvalue = [1, 0]", fillcolor="#e58139ff"] ;
755 -> 765 ;
766 [label="TotalCharges <= 1842.275\ngini = 0.34\nsamples = 23\nvalue = [18, 5]", fillcolor="#e58139b8"] ;
726 -> 766 ;
767 [label="gini = 0.0\nsamples = 13\nvalue = [13, 0]", fillcolor="#e58139ff"] ;
766 -> 767 ;
768 [label="tenure <= 45.0\ngini = 0.5\nsamples = 10\nvalue = [5, 5]", fillcolor="#e5813900"] ;
766 -> 768 ;
769 [label="gini = 0.0\nsamples = 4\nvalue = [0, 4]", fillcolor="#399de5ff"] ;
768 -> 769 ;
770 [label="TotalCharges <= 2880.35\ngini = 0.278\nsamples = 6\nvalue = [5, 1]", fillcolor="#e58139cc"] ;
768 -> 770 ;
771 [label="gini = 0.0\nsamples = 4\nvalue = [4, 0]", fillcolor="#e58139ff"] ;
770 -> 771 ;
772 [label="TotalCharges <= 3280.35\ngini = 0.5\nsamples = 2\nvalue = [1, 1]", fillcolor="#e5813900"] ;
770 -> 772 ;
773 [label="gini = 0.0\nsamples = 1\nvalue = [0, 1]", fillcolor="#399de5ff"] ;
772 -> 773 ;
774 [label="gini = 0.0\nsamples = 1\nvalue = [1, 0]", fillcolor="#e58139ff"] ;
772 -> 774 ;
775 [label="tenure <= 15.5\ngini = 0.36\nsamples = 3173\nvalue = [746, 2427]", fillcolor="#399de5b1"] ;
1 -> 775 ;
776 [label="TotalCharges <= 120.0\ngini = 0.239\nsamples = 1750\nvalue = [243, 1507]", fillcolor="#399de5d6"] ;
775 -> 776 ;
777 [label="TechSupport <= 0.5\ngini = 0.112\nsamples = 469\nvalue = [28, 441]", fillcolor="#399de5ef"] ;
776 -> 777 ;
778 [label="PaymentMethod <= 2.5\ngini = 0.095\nsamples = 459\nvalue = [23, 436]", fillcolor="#399de5f2"] ;
777 -> 778 ;
779 [label="MonthlyCharges <= 69.875\ngini = 0.086\nsamples = 443\nvalue = [20, 423]", fillcolor="#399de5f3"] ;
778 -> 779 ;
780 [label="gini = 0.0\nsamples = 72\nvalue = [0, 72]", fillcolor="#399de5ff"] ;
779 -> 780 ;
781 [label="TotalCharges <= 72.55\ngini = 0.102\nsamples = 371\nvalue = [20, 351]", fillcolor="#399de5f0"] ;
779 -> 781 ;
782 [label="TotalCharges <= 71.875\ngini = 0.189\nsamples = 104\nvalue = [11, 93]", fillcolor="#399de5e1"] ;
781 -> 782 ;
783 [label="Partner <= 0.5\ngini = 0.175\nsamples = 103\nvalue = [10, 93]", fillcolor="#399de5e4"] ;
782 -> 783 ;
784 [label="gini = 0.0\nsamples = 20\nvalue = [0, 20]", fillcolor="#399de5ff"] ;
783 -> 784 ;
785 [label="SeniorCitizen <= 0.5\ngini = 0.212\nsamples = 83\nvalue = [10, 73]", fillcolor="#399de5dc"] ;
783 -> 785 ;
786 [label="TotalCharges <= 71.225\ngini = 0.159\nsamples = 69\nvalue = [6, 63]", fillcolor="#399de5e7"] ;
785 -> 786 ;
787 [label="MonthlyCharges <= 71.0\ngini = 0.188\nsamples = 57\nvalue = [6, 51]", fillcolor="#399de5e1"] ;
786 -> 787 ;
788 [label="MonthlyCharges <= 70.075\ngini = 0.168\nsamples = 54\nvalue = [5, 49]", fillcolor="#399de5e5"] ;
787 -> 788 ;
789 [label="MonthlyCharges <= 69.925\ngini = 0.091\nsamples = 21\nvalue = [1, 20]", fillcolor="#399de5f2"] ;
788 -> 789 ;
790 [label="gini = 0.142\nsamples = 13\nvalue = [1, 12]", fillcolor="#399de5ea"] ;
789 -> 790 ;
791 [label="gini = 0.0\nsamples = 8\nvalue = [0, 8]", fillcolor="#399de5ff"] ;
789 -> 791 ;
792 [label="TotalCharges <= 70.125\ngini = 0.213\nsamples = 33\nvalue = [4, 29]", fillcolor="#399de5dc"] ;
788 -> 792 ;
793 [label="PaperlessBilling <= 0.5\ngini = 0.5\nsamples = 2\nvalue = [1, 1]", fillcolor="#e5813900"] ;
792 -> 793 ;
794 [label="gini = 0.0\nsamples = 1\nvalue = [1, 0]", fillcolor="#e58139ff"] ;
793 -> 794 ;
795 [label="gini = 0.0\nsamples = 1\nvalue = [0, 1]", fillcolor="#399de5ff"] ;
793 -> 795 ;
796 [label="TotalCharges <= 70.375\ngini = 0.175\nsamples = 31\nvalue = [3, 28]", fillcolor="#399de5e4"] ;
792 -> 796 ;
797 [label="TotalCharges <= 70.325\ngini = 0.298\nsamples = 11\nvalue = [2, 9]", fillcolor="#399de5c6"] ;
796 -> 797 ;
798 [label="MonthlyCharges <= 70.275\ngini = 0.18\nsamples = 10\nvalue = [1, 9]", fillcolor="#399de5e3"] ;
797 -> 798 ;
799 [label="MonthlyCharges <= 70.2\ngini = 0.278\nsamples = 6\nvalue = [1, 5]", fillcolor="#399de5cc"] ;
798 -> 799 ;
800 [label="gini = 0.0\nsamples = 2\nvalue = [0, 2]", fillcolor="#399de5ff"] ;
799 -> 800 ;
801 [label="gini = 0.375\nsamples = 4\nvalue = [1, 3]", fillcolor="#399de5aa"] ;
799 -> 801 ;
802 [label="gini = 0.0\nsamples = 4\nvalue = [0, 4]", fillcolor="#399de5ff"] ;
798 -> 802 ;
803 [label="gini = 0.0\nsamples = 1\nvalue = [1, 0]", fillcolor="#e58139ff"] ;
797 -> 803 ;
804 [label="gender <= 0.5\ngini = 0.095\nsamples = 20\nvalue = [1, 19]", fillcolor="#399de5f2"] ;
796 -> 804 ;
805 [label="MonthlyCharges <= 70.525\ngini = 0.198\nsamples = 9\nvalue = [1, 8]", fillcolor="#399de5df"] ;
804 -> 805 ;
806 [label="gini = 0.0\nsamples = 6\nvalue = [0, 6]", fillcolor="#399de5ff"] ;
805 -> 806 ;
807 [label="PaperlessBilling <= 0.5\ngini = 0.444\nsamples = 3\nvalue = [1, 2]", fillcolor="#399de57f"] ;
805 -> 807 ;
808 [label="gini = 0.0\nsamples = 2\nvalue = [0, 2]", fillcolor="#399de5ff"] ;
807 -> 808 ;
809 [label="gini = 0.0\nsamples = 1\nvalue = [1, 0]", fillcolor="#e58139ff"] ;
807 -> 809 ;
810 [label="gini = 0.0\nsamples = 11\nvalue = [0, 11]", fillcolor="#399de5ff"] ;
804 -> 810 ;
811 [label="gini = 0.444\nsamples = 3\nvalue = [1, 2]", fillcolor="#399de57f"] ;
787 -> 811 ;
812 [label="gini = 0.0\nsamples = 12\nvalue = [0, 12]", fillcolor="#399de5ff"] ;
786 -> 812 ;
813 [label="MonthlyCharges <= 71.2\ngini = 0.408\nsamples = 14\nvalue = [4, 10]", fillcolor="#399de599"] ;
785 -> 813 ;
814 [label="PaymentMethod <= 0.5\ngini = 0.355\nsamples = 13\nvalue = [3, 10]", fillcolor="#399de5b3"] ;
813 -> 814 ;
815 [label="gender <= 0.5\ngini = 0.278\nsamples = 12\nvalue = [2, 10]", fillcolor="#399de5cc"] ;
814 -> 815 ;
816 [label="gini = 0.0\nsamples = 1\nvalue = [1, 0]", fillcolor="#e58139ff"] ;
815 -> 816 ;
817 [label="TotalCharges <= 70.175\ngini = 0.165\nsamples = 11\nvalue = [1, 10]", fillcolor="#399de5e6"] ;
815 -> 817 ;
818 [label="gini = 0.0\nsamples = 5\nvalue = [0, 5]", fillcolor="#399de5ff"] ;
817 -> 818 ;
819 [label="MonthlyCharges <= 70.375\ngini = 0.278\nsamples = 6\nvalue = [1, 5]", fillcolor="#399de5cc"] ;
817 -> 819 ;
820 [label="gini = 0.0\nsamples = 1\nvalue = [1, 0]", fillcolor="#e58139ff"] ;
819 -> 820 ;
821 [label="gini = 0.0\nsamples = 5\nvalue = [0, 5]", fillcolor="#399de5ff"] ;
819 -> 821 ;
822 [label="gini = 0.0\nsamples = 1\nvalue = [1, 0]", fillcolor="#e58139ff"] ;
814 -> 822 ;
823 [label="gini = 0.0\nsamples = 1\nvalue = [1, 0]", fillcolor="#e58139ff"] ;
813 -> 823 ;
824 [label="gini = 0.0\nsamples = 1\nvalue = [1, 0]", fillcolor="#e58139ff"] ;
782 -> 824 ;
825 [label="SeniorCitizen <= 0.5\ngini = 0.065\nsamples = 267\nvalue = [9, 258]", fillcolor="#399de5f6"] ;
781 -> 825 ;
826 [label="OnlineBackup <= 0.5\ngini = 0.093\nsamples = 184\nvalue = [9, 175]", fillcolor="#399de5f2"] ;
825 -> 826 ;
827 [label="StreamingTV <= 0.5\ngini = 0.072\nsamples = 161\nvalue = [6, 155]", fillcolor="#399de5f5"] ;
826 -> 827 ;
828 [label="TotalCharges <= 75.2\ngini = 0.023\nsamples = 86\nvalue = [1, 85]", fillcolor="#399de5fc"] ;
827 -> 828 ;
829 [label="MonthlyCharges <= 75.025\ngini = 0.067\nsamples = 29\nvalue = [1, 28]", fillcolor="#399de5f6"] ;
828 -> 829 ;
830 [label="gini = 0.0\nsamples = 28\nvalue = [0, 28]", fillcolor="#399de5ff"] ;
829 -> 830 ;
831 [label="gini = 0.0\nsamples = 1\nvalue = [1, 0]", fillcolor="#e58139ff"] ;
829 -> 831 ;
832 [label="gini = 0.0\nsamples = 57\nvalue = [0, 57]", fillcolor="#399de5ff"] ;
828 -> 832 ;
833 [label="MonthlyCharges <= 90.325\ngini = 0.124\nsamples = 75\nvalue = [5, 70]", fillcolor="#399de5ed"] ;
827 -> 833 ;
834 [label="MonthlyCharges <= 90.0\ngini = 0.198\nsamples = 45\nvalue = [5, 40]", fillcolor="#399de5df"] ;
833 -> 834 ;
835 [label="TotalCharges <= 89.2\ngini = 0.165\nsamples = 44\nvalue = [4, 40]", fillcolor="#399de5e6"] ;
834 -> 835 ;
836 [label="MonthlyCharges <= 80.4\ngini = 0.105\nsamples = 36\nvalue = [2, 34]", fillcolor="#399de5f0"] ;
835 -> 836 ;
837 [label="gini = 0.0\nsamples = 17\nvalue = [0, 17]", fillcolor="#399de5ff"] ;
836 -> 837 ;
838 [label="gender <= 0.5\ngini = 0.188\nsamples = 19\nvalue = [2, 17]", fillcolor="#399de5e1"] ;
836 -> 838 ;
839 [label="TotalCharges <= 82.525\ngini = 0.111\nsamples = 17\nvalue = [1, 16]", fillcolor="#399de5ef"] ;
838 -> 839 ;
840 [label="Partner <= 0.5\ngini = 0.444\nsamples = 3\nvalue = [1, 2]", fillcolor="#399de57f"] ;
839 -> 840 ;
841 [label="gini = 0.0\nsamples = 2\nvalue = [0, 2]", fillcolor="#399de5ff"] ;
840 -> 841 ;
842 [label="gini = 0.0\nsamples = 1\nvalue = [1, 0]", fillcolor="#e58139ff"] ;
840 -> 842 ;
843 [label="gini = 0.0\nsamples = 14\nvalue = [0, 14]", fillcolor="#399de5ff"] ;
839 -> 843 ;
844 [label="TotalCharges <= 85.025\ngini = 0.5\nsamples = 2\nvalue = [1, 1]", fillcolor="#e5813900"] ;
838 -> 844 ;
845 [label="gini = 0.0\nsamples = 1\nvalue = [1, 0]", fillcolor="#e58139ff"] ;
844 -> 845 ;
846 [label="gini = 0.0\nsamples = 1\nvalue = [0, 1]", fillcolor="#399de5ff"] ;
844 -> 846 ;
847 [label="TotalCharges <= 89.45\ngini = 0.375\nsamples = 8\nvalue = [2, 6]", fillcolor="#399de5aa"] ;
835 -> 847 ;
848 [label="gini = 0.0\nsamples = 2\nvalue = [2, 0]", fillcolor="#e58139ff"] ;
847 -> 848 ;
849 [label="gini = 0.0\nsamples = 6\nvalue = [0, 6]", fillcolor="#399de5ff"] ;
847 -> 849 ;
850 [label="gini = 0.0\nsamples = 1\nvalue = [1, 0]", fillcolor="#e58139ff"] ;
834 -> 850 ;
851 [label="gini = 0.0\nsamples = 30\nvalue = [0, 30]", fillcolor="#399de5ff"] ;
833 -> 851 ;
852 [label="StreamingMovies <= 0.5\ngini = 0.227\nsamples = 23\nvalue = [3, 20]", fillcolor="#399de5d9"] ;
826 -> 852 ;
853 [label="PaymentMethod <= 0.5\ngini = 0.165\nsamples = 22\nvalue = [2, 20]", fillcolor="#399de5e6"] ;
852 -> 853 ;
854 [label="TotalCharges <= 74.525\ngini = 0.091\nsamples = 21\nvalue = [1, 20]", fillcolor="#399de5f2"] ;
853 -> 854 ;
855 [label="gender <= 0.5\ngini = 0.5\nsamples = 2\nvalue = [1, 1]", fillcolor="#e5813900"] ;
854 -> 855 ;
856 [label="gini = 0.0\nsamples = 1\nvalue = [0, 1]", fillcolor="#399de5ff"] ;
855 -> 856 ;
857 [label="gini = 0.0\nsamples = 1\nvalue = [1, 0]", fillcolor="#e58139ff"] ;
855 -> 857 ;
858 [label="gini = 0.0\nsamples = 19\nvalue = [0, 19]", fillcolor="#399de5ff"] ;
854 -> 858 ;
859 [label="gini = 0.0\nsamples = 1\nvalue = [1, 0]", fillcolor="#e58139ff"] ;
853 -> 859 ;
860 [label="gini = 0.0\nsamples = 1\nvalue = [1, 0]", fillcolor="#e58139ff"] ;
852 -> 860 ;
861 [label="gini = 0.0\nsamples = 83\nvalue = [0, 83]", fillcolor="#399de5ff"] ;
825 -> 861 ;
862 [label="gender <= 0.5\ngini = 0.305\nsamples = 16\nvalue = [3, 13]", fillcolor="#399de5c4"] ;
778 -> 862 ;
863 [label="gini = 0.0\nsamples = 3\nvalue = [3, 0]", fillcolor="#e58139ff"] ;
862 -> 863 ;
864 [label="gini = 0.0\nsamples = 13\nvalue = [0, 13]", fillcolor="#399de5ff"] ;
862 -> 864 ;
865 [label="TotalCharges <= 75.3\ngini = 0.5\nsamples = 10\nvalue = [5, 5]", fillcolor="#e5813900"] ;
777 -> 865 ;
866 [label="gini = 0.0\nsamples = 3\nvalue = [3, 0]", fillcolor="#e58139ff"] ;
865 -> 866 ;
867 [label="TotalCharges <= 79.65\ngini = 0.408\nsamples = 7\nvalue = [2, 5]", fillcolor="#399de599"] ;
865 -> 867 ;
868 [label="gini = 0.0\nsamples = 4\nvalue = [0, 4]", fillcolor="#399de5ff"] ;
867 -> 868 ;
869 [label="PaperlessBilling <= 0.5\ngini = 0.444\nsamples = 3\nvalue = [2, 1]", fillcolor="#e581397f"] ;
867 -> 869 ;
870 [label="gini = 0.0\nsamples = 1\nvalue = [0, 1]", fillcolor="#399de5ff"] ;
869 -> 870 ;
871 [label="gini = 0.0\nsamples = 2\nvalue = [2, 0]", fillcolor="#e58139ff"] ;
869 -> 871 ;
872 [label="MonthlyCharges <= 70.675\ngini = 0.279\nsamples = 1281\nvalue = [215, 1066]", fillcolor="#399de5cc"] ;
776 -> 872 ;
873 [label="MonthlyCharges <= 70.425\ngini = 0.449\nsamples = 97\nvalue = [33, 64]", fillcolor="#399de57c"] ;
872 -> 873 ;
874 [label="TotalCharges <= 127.725\ngini = 0.435\nsamples = 94\nvalue = [30, 64]", fillcolor="#399de587"] ;
873 -> 874 ;
875 [label="gini = 0.0\nsamples = 2\nvalue = [2, 0]", fillcolor="#e58139ff"] ;
874 -> 875 ;
876 [label="MonthlyCharges <= 69.575\ngini = 0.423\nsamples = 92\nvalue = [28, 64]", fillcolor="#399de58f"] ;
874 -> 876 ;
877 [label="MonthlyCharges <= 69.075\ngini = 0.495\nsamples = 20\nvalue = [9, 11]", fillcolor="#399de52e"] ;
876 -> 877 ;
878 [label="gender <= 0.5\ngini = 0.219\nsamples = 8\nvalue = [1, 7]", fillcolor="#399de5db"] ;
877 -> 878 ;
879 [label="gini = 0.0\nsamples = 1\nvalue = [1, 0]", fillcolor="#e58139ff"] ;
878 -> 879 ;
880 [label="gini = 0.0\nsamples = 7\nvalue = [0, 7]", fillcolor="#399de5ff"] ;
878 -> 880 ;
881 [label="PaymentMethod <= 0.5\ngini = 0.444\nsamples = 12\nvalue = [8, 4]", fillcolor="#e581397f"] ;
877 -> 881 ;
882 [label="TotalCharges <= 443.05\ngini = 0.245\nsamples = 7\nvalue = [6, 1]", fillcolor="#e58139d4"] ;
881 -> 882 ;
883 [label="gini = 0.0\nsamples = 5\nvalue = [5, 0]", fillcolor="#e58139ff"] ;
882 -> 883 ;
884 [label="Partner <= 0.5\ngini = 0.5\nsamples = 2\nvalue = [1, 1]", fillcolor="#e5813900"] ;
882 -> 884 ;
885 [label="gini = 0.0\nsamples = 1\nvalue = [0, 1]", fillcolor="#399de5ff"] ;
884 -> 885 ;
886 [label="gini = 0.0\nsamples = 1\nvalue = [1, 0]", fillcolor="#e58139ff"] ;
884 -> 886 ;
887 [label="Partner <= 0.5\ngini = 0.48\nsamples = 5\nvalue = [2, 3]", fillcolor="#399de555"] ;
881 -> 887 ;
888 [label="gini = 0.0\nsamples = 2\nvalue = [2, 0]", fillcolor="#e58139ff"] ;
887 -> 888 ;
889 [label="gini = 0.0\nsamples = 3\nvalue = [0, 3]", fillcolor="#399de5ff"] ;
887 -> 889 ;
890 [label="PaymentMethod <= 0.5\ngini = 0.389\nsamples = 72\nvalue = [19, 53]", fillcolor="#399de5a4"] ;
876 -> 890 ;
891 [label="TotalCharges <= 144.575\ngini = 0.306\nsamples = 53\nvalue = [10, 43]", fillcolor="#399de5c4"] ;
890 -> 891 ;
892 [label="TotalCharges <= 139.15\ngini = 0.494\nsamples = 9\nvalue = [4, 5]", fillcolor="#399de533"] ;
891 -> 892 ;
893 [label="SeniorCitizen <= 0.5\ngini = 0.278\nsamples = 6\nvalue = [1, 5]", fillcolor="#399de5cc"] ;
892 -> 893 ;
894 [label="gini = 0.0\nsamples = 1\nvalue = [1, 0]", fillcolor="#e58139ff"] ;
893 -> 894 ;
895 [label="gini = 0.0\nsamples = 5\nvalue = [0, 5]", fillcolor="#399de5ff"] ;
893 -> 895 ;
896 [label="gini = 0.0\nsamples = 3\nvalue = [3, 0]", fillcolor="#e58139ff"] ;
892 -> 896 ;
897 [label="TotalCharges <= 750.025\ngini = 0.236\nsamples = 44\nvalue = [6, 38]", fillcolor="#399de5d7"] ;
891 -> 897 ;
898 [label="TotalCharges <= 309.75\ngini = 0.184\nsamples = 39\nvalue = [4, 35]", fillcolor="#399de5e2"] ;
897 -> 898 ;
899 [label="Partner <= 0.5\ngini = 0.278\nsamples = 24\nvalue = [4, 20]", fillcolor="#399de5cc"] ;
898 -> 899 ;
900 [label="TotalCharges <= 213.75\ngini = 0.444\nsamples = 3\nvalue = [2, 1]", fillcolor="#e581397f"] ;
899 -> 900 ;
901 [label="gini = 0.0\nsamples = 1\nvalue = [0, 1]", fillcolor="#399de5ff"] ;
900 -> 901 ;
902 [label="gini = 0.0\nsamples = 2\nvalue = [2, 0]", fillcolor="#e58139ff"] ;
900 -> 902 ;
903 [label="TotalCharges <= 202.275\ngini = 0.172\nsamples = 21\nvalue = [2, 19]", fillcolor="#399de5e4"] ;
899 -> 903 ;
904 [label="TotalCharges <= 145.9\ngini = 0.408\nsamples = 7\nvalue = [2, 5]", fillcolor="#399de599"] ;
903 -> 904 ;
905 [label="gini = 0.0\nsamples = 5\nvalue = [0, 5]", fillcolor="#399de5ff"] ;
904 -> 905 ;
906 [label="gini = 0.0\nsamples = 2\nvalue = [2, 0]", fillcolor="#e58139ff"] ;
904 -> 906 ;
907 [label="gini = 0.0\nsamples = 14\nvalue = [0, 14]", fillcolor="#399de5ff"] ;
903 -> 907 ;
908 [label="gini = 0.0\nsamples = 15\nvalue = [0, 15]", fillcolor="#399de5ff"] ;
898 -> 908 ;
909 [label="tenure <= 12.0\ngini = 0.48\nsamples = 5\nvalue = [2, 3]", fillcolor="#399de555"] ;
897 -> 909 ;
910 [label="gini = 0.0\nsamples = 2\nvalue = [2, 0]", fillcolor="#e58139ff"] ;
909 -> 910 ;
911 [label="gini = 0.0\nsamples = 3\nvalue = [0, 3]", fillcolor="#399de5ff"] ;
909 -> 911 ;
912 [label="PaperlessBilling <= 0.5\ngini = 0.499\nsamples = 19\nvalue = [9, 10]", fillcolor="#399de519"] ;
890 -> 912 ;
913 [label="gini = 0.0\nsamples = 4\nvalue = [4, 0]", fillcolor="#e58139ff"] ;
912 -> 913 ;
914 [label="MonthlyCharges <= 70.275\ngini = 0.444\nsamples = 15\nvalue = [5, 10]", fillcolor="#399de57f"] ;
912 -> 914 ;
915 [label="MonthlyCharges <= 69.975\ngini = 0.355\nsamples = 13\nvalue = [3, 10]", fillcolor="#399de5b3"] ;
914 -> 915 ;
916 [label="PaymentMethod <= 2.5\ngini = 0.5\nsamples = 6\nvalue = [3, 3]", fillcolor="#e5813900"] ;
915 -> 916 ;
917 [label="gini = 0.0\nsamples = 3\nvalue = [3, 0]", fillcolor="#e58139ff"] ;
916 -> 917 ;
918 [label="gini = 0.0\nsamples = 3\nvalue = [0, 3]", fillcolor="#399de5ff"] ;
916 -> 918 ;
919 [label="gini = 0.0\nsamples = 7\nvalue = [0, 7]", fillcolor="#399de5ff"] ;
915 -> 919 ;
920 [label="gini = 0.0\nsamples = 2\nvalue = [2, 0]", fillcolor="#e58139ff"] ;
914 -> 920 ;
921 [label="gini = 0.0\nsamples = 3\nvalue = [3, 0]", fillcolor="#e58139ff"] ;
873 -> 921 ;
922 [label="OnlineSecurity <= 0.5\ngini = 0.26\nsamples = 1184\nvalue = [182, 1002]", fillcolor="#399de5d1"] ;
872 -> 922 ;
923 [label="TotalCharges <= 140.4\ngini = 0.239\nsamples = 1054\nvalue = [146, 908]", fillcolor="#399de5d6"] ;
922 -> 923 ;
924 [label="PaymentMethod <= 2.0\ngini = 0.32\nsamples = 5\nvalue = [4, 1]", fillcolor="#e58139bf"] ;
923 -> 924 ;
925 [label="gini = 0.0\nsamples = 4\nvalue = [4, 0]", fillcolor="#e58139ff"] ;
924 -> 925 ;
926 [label="gini = 0.0\nsamples = 1\nvalue = [0, 1]", fillcolor="#399de5ff"] ;
924 -> 926 ;
927 [label="TotalCharges <= 1504.75\ngini = 0.234\nsamples = 1049\nvalue = [142, 907]", fillcolor="#399de5d7"] ;
923 -> 927 ;
928 [label="MultipleLines <= 0.5\ngini = 0.231\nsamples = 1045\nvalue = [139, 906]", fillcolor="#399de5d8"] ;
927 -> 928 ;
929 [label="MonthlyCharges <= 101.375\ngini = 0.283\nsamples = 433\nvalue = [74, 359]", fillcolor="#399de5ca"] ;
928 -> 929 ;
930 [label="tenure <= 2.5\ngini = 0.276\nsamples = 430\nvalue = [71, 359]", fillcolor="#399de5cd"] ;
929 -> 930 ;
931 [label="StreamingMovies <= 0.5\ngini = 0.124\nsamples = 60\nvalue = [4, 56]", fillcolor="#399de5ed"] ;
930 -> 931 ;
